{"learner":{"attributes":{"scikit_learn":"{\"_estimator_type\": \"classifier\"}"},"feature_names":["Age","BusinessTravel","Department","DistanceFromHome","EnvironmentSatisfaction","JobInvolvement","JobRole","JobSatisfaction","MonthlyIncome","OverTime","PerformanceRating","WorkLifeBalance","YearsAtCompany","IncomePerYearAtCompany","HighOvertimeRisk","TravelStress","JobHopperRisk","LowIncomeHighDissatisfaction"],"feature_types":["int","int","int","int","int","int","int","int","int","int","int","int","int","float","int","int","int","int"],"gradient_booster":{"model":{"cats":{"enc":[],"feature_segments":[],"sorted_idx":[]},"gbtree_model_param":{"num_parallel_tree":"1","num_trees":"300"},"iteration_indptr":[0,1,2,3,4,5,6,7,8,9,10,11,12,13,14,15,16,17,18,19,20,21,22,23,24,25,26,27,28,29,30,31,32,33,34,35,36,37,38,39,40,41,42,43,44,45,46,47,48,49,50,51,52,53,54,55,56,57,58,59,60,61,62,63,64,65,66,67,68,69,70,71,72,73,74,75,76,77,78,79,80,81,82,83,84,85,86,87,88,89,90,91,92,93,94,95,96,97,98,99,100,101,102,103,104,105,106,107,108,109,110,111,112,113,114,115,116,117,118,119,120,121,122,123,124,125,126,127,128,129,130,131,132,133,134,135,136,137,138,139,140,141,142,143,144,145,146,147,148,149,150,151,152,153,154,155,156,157,158,159,160,161,162,163,164,165,166,167,168,169,170,171,172,173,174,175,176,177,178,179,180,181,182,183,184,185,186,187,188,189,190,191,192,193,194,195,196,197,198,199,200,201,202,203,204,205,206,207,208,209,210,211,212,213,214,215,216,217,218,219,220,221,222,223,224,225,226,227,228,229,230,231,232,233,234,235,236,237,238,239,240,241,242,243,244,245,246,247,248,249,250,251,252,253,254,255,256,257,258,259,260,261,262,263,264,265,266,267,268,269,270,271,272,273,274,275,276,277,278,279,280,281,282,283,284,285,286,287,288,289,290,291,292,293,294,295,296,297,298,299,300],"tree_info":[0,0,0,0,0,0,0,0,0,0,0,0,0,0,0,0,0,0,0,0,0,0,0,0,0,0,0,0,0,0,0,0,0,0,0,0,0,0,0,0,0,0,0,0,0,0,0,0,0,0,0,0,0,0,0,0,0,0,0,0,0,0,0,0,0,0,0,0,0,0,0,0,0,0,0,0,0,0,0,0,0,0,0,0,0,0,0,0,0,0,0,0,0,0,0,0,0,0,0,0,0,0,0,0,0,0,0,0,0,0,0,0,0,0,0,0,0,0,0,0,0,0,0,0,0,0,0,0,0,0,0,0,0,0,0,0,0,0,0,0,0,0,0,0,0,0,0,0,0,0,0,0,0,0,0,0,0,0,0,0,0,0,0,0,0,0,0,0,0,0,0,0,0,0,0,0,0,0,0,0,0,0,0,0,0,0,0,0,0,0,0,0,0,0,0,0,0,0,0,0,0,0,0,0,0,0,0,0,0,0,0,0,0,0,0,0,0,0,0,0,0,0,0,0,0,0,0,0,0,0,0,0,0,0,0,0,0,0,0,0,0,0,0,0,0,0,0,0,0,0,0,0,0,0,0,0,0,0,0,0,0,0,0,0,0,0,0,0,0,0,0,0,0,0,0,0,0,0,0,0,0,0,0,0,0,0,0,0,0,0,0,0,0,0,0,0,0,0,0,0],"trees":[{"base_weights":[-6.74053E-2,8.116087E-1,-4.9420106E-1,1.1527638E0,-6.493618E-1,-1.0201144E0,3.580556E-1,1.3269138E0,4.526946E-1,-1.5141383E0,6.0294116E-1,4.3391228E-1,-1.1935107E0,9.1166717E-1,-2.4705692E-1,7.454145E-1,1.5097407E0,-3.8705003E-1,1.1722937E0,-9.166667E-2,-1.0672212E-1,-5.013714E-1,1.2794843E0,-5.165563E-1,1.1456407E0,-1.2507688E0,6.0985625E-2,-6.363636E-2,1.01232E0,9.3270354E-2,-1.1058735E0,1.2393239E0,1.2900048E-1,1.6738198E0,1.0659566E0,-1.0474198E0,8.491823E-1,7.789203E-1,7.95589E-2,4.11157E-2,-5.555556E-2,-7.1428575E-2,5.647194E-2,1.7962003E-2,7.95589E-2,-7.647059E-2,4.2975205E-1,4.2975205E-1,7.670617E-2,-1.4922638E0,-7.230848E-1,7.922929E-1,8.316349E-2,-6.8815094E-1,5.3895736E-1,-2.5519288E-1,-8.709677E-2,7.377864E-2,9.018356E-3,7.95589E-2,-4.7115758E-2,8.540987E-2,2.8504232E-2,6.1688032E-2,-5E-2,1.3353112E-3,-8.0000006E-2,5.647194E-2,1.7962003E-2,6.290873E-2,-5.336106E-3,5.1156815E-2,-5E-2,7.218155E-2,-6.0000002E-2,-5.7015527E-2,-8.817556E-2,1.4193549E-2,-5.270788E-2,4.898608E-2,-7.1428575E-2,-6.509072E-2,5.1156815E-2,-7.1428575E-2,4.222729E-2,-7.647059E-2,6.0985625E-2],"categories":[],"categories_nodes":[],"categories_segments":[],"categories_sizes":[],"default_left":[0,0,0,0,0,0,0,0,0,0,0,0,0,0,0,0,0,0,0,0,0,0,0,0,0,0,0,0,0,0,0,0,0,0,0,0,0,0,0,0,0,0,0,0,0,0,0,0,0,0,0,0,0,0,0,0,0,0,0,0,0,0,0,0,0,0,0,0,0,0,0,0,0,0,0,0,0,0,0,0,0,0,0,0,0,0,0],"id":0,"left_children":[1,3,5,7,9,11,13,15,17,19,21,23,25,27,29,31,33,35,37,-1,39,41,43,45,47,49,-1,-1,51,53,55,57,59,61,63,65,67,69,-1,-1,-1,-1,-1,-1,-1,-1,71,73,-1,75,77,79,-1,81,83,85,-1,-1,-1,-1,-1,-1,-1,-1,-1,-1,-1,-1,-1,-1,-1,-1,-1,-1,-1,-1,-1,-1,-1,-1,-1,-1,-1,-1,-1,-1,-1],"loss_changes":[1.4484637E2,6.3659363E1,1.16812225E2,1.1918579E1,2.7482563E1,4.1089737E1,3.3685287E1,7.561844E0,1.3731979E1,6.451912E0,8.663152E0,1.26864605E1,2.1428818E1,1.2803574E1,1.4280969E1,6.392267E0,2.6715393E0,9.781444E0,7.51379E-1,0E0,4.4570584E0,8.867523E0,1.4188662E0,8.655478E0,2.270379E0,1.69142E1,0E0,0E0,5.9328613E0,1.2791267E1,7.0466595E0,2.6938515E0,1.8243958E1,6.5476227E-1,7.914568E0,4.522401E0,1.908338E-1,3.6102815E0,0E0,0E0,0E0,0E0,0E0,0E0,0E0,0E0,5.3454714E0,1.0150755E1,0E0,7.1467743E0,1.5724886E1,1.7943497E1,0E0,1.5395714E1,1.5198306E1,1.5198953E1,0E0,0E0,0E0,0E0,0E0,0E0,0E0,0E0,0E0,0E0,0E0,0E0,0E0,0E0,0E0,0E0,0E0,0E0,0E0,0E0,0E0,0E0,0E0,0E0,0E0,0E0,0E0,0E0,0E0,0E0,0E0],"parents":[2147483647,0,0,1,1,2,2,3,3,4,4,5,5,6,6,7,7,8,8,9,9,10,10,11,11,12,12,13,13,14,14,15,15,16,16,17,17,18,18,20,20,21,21,22,22,23,23,24,24,25,25,28,28,29,29,30,30,31,31,32,32,33,33,34,34,35,35,36,36,37,37,46,46,47,47,49,49,50,50,51,51,53,53,54,54,55,55],"right_children":[2,4,6,8,10,12,14,16,18,20,22,24,26,28,30,32,34,36,38,-1,40,42,44,46,48,50,-1,-1,52,54,56,58,60,62,64,66,68,70,-1,-1,-1,-1,-1,-1,-1,-1,72,74,-1,76,78,80,-1,82,84,86,-1,-1,-1,-1,-1,-1,-1,-1,-1,-1,-1,-1,-1,-1,-1,-1,-1,-1,-1,-1,-1,-1,-1,-1,-1,-1,-1,-1,-1,-1,-1],"split_conditions":[3E0,4E1,1E0,3.4E1,1.7E1,2E0,3.6E1,4E0,1E0,5.7E1,1E0,9E0,5.8E1,1E0,4E0,3E0,2E0,8E0,3.9E1,-9.166667E-2,2E0,5.2E1,4.3E1,8E0,7E0,7E0,6.0985625E-2,-6.363636E-2,1.8E1,4.4E1,4.2E1,2E0,2E0,2.5E1,4E0,3E0,3.5E1,3.6E1,7.95589E-2,4.11157E-2,-5.555556E-2,-7.1428575E-2,5.647194E-2,1.7962003E-2,7.95589E-2,-7.647059E-2,1.1E1,2E0,7.670617E-2,3E0,5E0,1E1,8.316349E-2,2.2E1,3E0,4.1E1,-8.709677E-2,7.377864E-2,9.018356E-3,7.95589E-2,-4.7115758E-2,8.540987E-2,2.8504232E-2,6.1688032E-2,-5E-2,1.3353112E-3,-8.0000006E-2,5.647194E-2,1.7962003E-2,6.290873E-2,-5.336106E-3,5.1156815E-2,-5E-2,7.218155E-2,-6.0000002E-2,-5.7015527E-2,-8.817556E-2,1.4193549E-2,-5.270788E-2,4.898608E-2,-7.1428575E-2,-6.509072E-2,5.1156815E-2,-7.1428575E-2,4.222729E-2,-7.647059E-2,6.0985625E-2],"split_indices":[12,0,9,0,3,11,0,15,9,0,9,3,15,6,7,6,12,6,0,0,1,15,0,12,6,6,0,0,3,0,0,12,5,3,5,11,0,0,0,0,0,0,0,0,0,0,12,7,0,6,12,12,0,15,6,0,0,0,0,0,0,0,0,0,0,0,0,0,0,0,0,0,0,0,0,0,0,0,0,0,0,0,0,0,0,0,0],"split_type":[0,0,0,0,0,0,0,0,0,0,0,0,0,0,0,0,0,0,0,0,0,0,0,0,0,0,0,0,0,0,0,0,0,0,0,0,0,0,0,0,0,0,0,0,0,0,0,0,0,0,0,0,0,0,0,0,0,0,0,0,0,0,0,0,0,0,0,0,0,0,0,0,0,0,0,0,0,0,0,0,0,0,0,0,0,0,0],"sum_hessian":[3.8402368E2,1.25221054E2,2.5880264E2,1.01686844E2,2.353421E1,1.5992105E2,9.888158E1,8.071316E1,2.0973684E1,1.3797368E1,9.736842E0,1.6878948E1,1.430421E2,5.1373684E1,4.7507896E1,2.0521053E1,6.0192104E1,9.892105E0,1.1081579E1,1.1E1,2.7973685E0,3.7973685E0,5.9394736E0,7.344737E0,9.53421E0,1.4019737E2,2.8447368E0,1.75E0,4.9623684E1,3.466316E1,1.2844737E1,1.0831579E1,9.689474E0,4.192105E1,1.8271053E1,6.5473685E0,3.3447368E0,7.1894736E0,3.892105E0,1.5473684E0,1.25E0,2.5E0,1.2973684E0,2.0473685E0,3.892105E0,3.25E0,4.094737E0,4.094737E0,5.4394736E0,9.4926315E1,4.5271053E1,3.8744736E1,1.0878947E1,1.2392105E1,2.2271053E1,6.094737E0,6.75E0,8.53421E0,2.2973685E0,3.892105E0,5.7973685E0,4.0123684E1,1.7973684E0,1.7271053E1,1E0,2.5473685E0,4E0,1.2973684E0,2.0473685E0,4.392105E0,2.7973685E0,3.0947368E0,1E0,2.5947368E0,1.5E0,4.3581577E1,5.1344738E1,1.1236842E1,3.403421E1,3.6244736E1,2.5E0,9.297368E0,3.0947368E0,2.5E0,1.9771053E1,3.25E0,2.8447368E0],"tree_param":{"num_deleted":"0","num_feature":"18","num_nodes":"87","size_leaf_vector":"1"}},{"base_weights":[-2.8292784E-2,7.7246666E-1,-3.786355E-1,1.0358323E0,-5.645521E-1,-7.3404956E-1,2.5687453E-1,1.2005304E0,3.4752822E-1,9.4753094E-2,-8.373999E-2,7.896746E-3,-9.750737E-1,1.010889E0,-2.3118286E-1,9.5579696E-1,1.5541515E0,-4.752999E-1,1.2470385E0,-6.501547E-1,7.678213E-2,-4.9527618E-1,5.413346E-1,-8.3281094E-1,-9.14455E-2,1.2935789E0,1.59713E-1,-5.120435E-1,7.374015E-1,1.2576331E0,7.048529E-1,1.5961416E0,2.8228048E-2,7.0262116E-1,-8.254223E-2,1.4425067E0,1.6283749E-2,5.9003776E-1,-7.911823E-2,2.500635E-1,-8.595998E-2,-9.12451E-1,1.1369879E0,-1.2025334E0,-5.1040053E-1,1.3992498E0,7.074998E-1,7.2423106E-1,-6.7758925E-2,-8.781779E-2,-1.6997303E-1,-2.025189E-1,1.4506077E0,7.141039E-2,4.968116E-4,-5.8892857E-2,4.2468984E-2,8.187754E-2,3.1158376E-2,6.9588326E-2,-6.7430213E-3,2.6783174E-2,8.0957234E-2,4.432046E-3,5.5324364E-2,4.5609217E-2,-7.515146E-2,-7.927909E-2,5.4779228E-2,7.622226E-2,-6.195302E-2,-9.2732914E-2,-3.1148037E-2,4.6481876E-4,-4.44174E-2,4.0919106E-2,7.5962655E-2,-4.233641E-4,5.9200007E-2,6.479682E-2,-5.7656445E-2,7.941591E-2,-2.0910235E-2,5.0394792E-2,-7.347794E-2,8.1200354E-2,2.7385956E-2],"categories":[],"categories_nodes":[],"categories_segments":[],"categories_sizes":[],"default_left":[0,0,0,0,0,0,0,0,0,0,0,0,0,0,0,0,0,0,0,0,0,0,0,0,0,0,0,0,0,0,0,0,0,0,0,0,0,0,0,0,0,0,0,0,0,0,0,0,0,0,0,0,0,0,0,0,0,0,0,0,0,0,0,0,0,0,0,0,0,0,0,0,0,0,0,0,0,0,0,0,0,0,0,0,0,0,0],"id":1,"left_children":[1,3,5,7,9,11,13,15,17,19,-1,21,23,25,27,29,31,33,35,37,-1,39,41,43,-1,45,47,49,51,53,55,57,-1,59,-1,61,-1,63,-1,65,-1,67,69,71,73,75,77,79,-1,-1,81,83,85,-1,-1,-1,-1,-1,-1,-1,-1,-1,-1,-1,-1,-1,-1,-1,-1,-1,-1,-1,-1,-1,-1,-1,-1,-1,-1,-1,-1,-1,-1,-1,-1,-1,-1],"loss_changes":[1.0814103E2,4.190039E1,6.0743942E1,1.0734955E1,1.476626E1,3.0801628E1,3.5893047E1,5.3492203E0,1.5693086E1,1.5453079E1,0E0,1.1867584E1,1.4265938E1,8.999893E0,1.6601347E1,2.8454933E0,3.7472534E-1,1.691668E1,1.3352861E0,1.2009466E1,0E0,2.1193104E1,1.9616066E1,1.2886612E1,0E0,7.801361E-1,1.0114897E1,1.963102E1,9.55526E0,4.4747314E0,8.93994E0,1.4419556E-1,0E0,3.8729513E0,0E0,4.1045952E-1,0E0,1.1550593E0,0E0,1.8804596E1,0E0,1.0915492E1,1.6309591E1,1.8505646E1,1.2232605E1,3.7334824E-1,2.1896436E0,1.0544815E1,0E0,0E0,1.7177046E1,1.1968223E1,3.5949707E-1,0E0,0E0,0E0,0E0,0E0,0E0,0E0,0E0,0E0,0E0,0E0,0E0,0E0,0E0,0E0,0E0,0E0,0E0,0E0,0E0,0E0,0E0,0E0,0E0,0E0,0E0,0E0,0E0,0E0,0E0,0E0,0E0,0E0,0E0],"parents":[2147483647,0,0,1,1,2,2,3,3,4,4,5,5,6,6,7,7,8,8,9,9,11,11,12,12,13,13,14,14,15,15,16,16,17,17,18,18,19,19,21,21,22,22,23,23,25,25,26,26,27,27,28,28,29,29,30,30,31,31,33,33,35,35,37,37,39,39,41,41,42,42,43,43,44,44,45,45,46,46,47,47,50,50,51,51,52,52],"right_children":[2,4,6,8,10,12,14,16,18,20,-1,22,24,26,28,30,32,34,36,38,-1,40,42,44,-1,46,48,50,52,54,56,58,-1,60,-1,62,-1,64,-1,66,-1,68,70,72,74,76,78,80,-1,-1,82,84,86,-1,-1,-1,-1,-1,-1,-1,-1,-1,-1,-1,-1,-1,-1,-1,-1,-1,-1,-1,-1,-1,-1,-1,-1,-1,-1,-1,-1,-1,-1,-1,-1,-1,-1],"split_conditions":[3E0,4.1E1,1E0,4E0,3.6755E3,2E0,4.014E3,1.1E1,1E0,2.4E1,-8.373999E-2,8E0,1.0655E3,3.6E1,2.3E1,3E0,2.6E1,3E0,2.95E3,3E0,7.678213E-2,3E0,5.16E2,6E0,-9.14455E-2,4E0,7E0,6.014375E2,2E0,3.3E1,2E0,3.7E1,2.8228048E-2,2E1,-8.254223E-2,7E0,1.6283749E-2,4E0,-7.911823E-2,7.321667E2,-8.595998E-2,2.7E1,1.33675E3,6.014375E2,4.258E3,5E0,7E0,4E0,-6.7758925E-2,-8.781779E-2,6.0744446E2,3.5E1,4E0,7.141039E-2,4.968116E-4,-5.8892857E-2,4.2468984E-2,8.187754E-2,3.1158376E-2,6.9588326E-2,-6.7430213E-3,2.6783174E-2,8.0957234E-2,4.432046E-3,5.5324364E-2,4.5609217E-2,-7.515146E-2,-7.927909E-2,5.4779228E-2,7.622226E-2,-6.195302E-2,-9.2732914E-2,-3.1148037E-2,4.6481876E-4,-4.44174E-2,4.0919106E-2,7.5962655E-2,-4.233641E-4,5.9200007E-2,6.479682E-2,-5.7656445E-2,7.941591E-2,-2.0910235E-2,5.0394792E-2,-7.347794E-2,8.1200354E-2,2.7385956E-2],"split_indices":[12,0,9,7,13,4,8,15,9,15,0,15,13,0,15,5,3,3,8,5,0,3,13,15,0,7,12,13,2,0,3,0,0,0,0,3,0,4,0,13,0,3,13,13,8,12,3,7,0,0,13,0,7,0,0,0,0,0,0,0,0,0,0,0,0,0,0,0,0,0,0,0,0,0,0,0,0,0,0,0,0,0,0,0,0,0,0],"split_type":[0,0,0,0,0,0,0,0,0,0,0,0,0,0,0,0,0,0,0,0,0,0,0,0,0,0,0,0,0,0,0,0,0,0,0,0,0,0,0,0,0,0,0,0,0,0,0,0,0,0,0,0,0,0,0,0,0,0,0,0,0,0,0,0,0,0,0,0,0,0,0,0,0,0,0,0,0,0,0,0,0,0,0,0,0,0,0],"sum_hessian":[3.8343164E2,1.163323E2,2.6709933E2,9.737639E1,1.895591E1,1.7119957E2,9.589979E1,7.797441E1,1.9401978E1,1.2467132E1,6.4887776E0,4.2215263E1,1.289843E2,3.7261745E1,5.863804E1,4.8270412E1,2.9703999E1,1.0379197E1,9.02278E0,8.580161E0,3.88697E0,2.1760706E1,2.0454557E1,1.1225603E2,1.6728275E1,2.758166E1,9.680085E0,4.582229E1,1.281575E1,2.0092047E1,2.8178366E1,2.7906929E1,1.7970707E0,5.385306E0,4.993891E0,6.9769855E0,2.0457954E0,3.8393824E0,4.740779E0,1.4019099E1,7.7416058E0,5.790378E0,1.466418E1,5.101967E1,6.123636E1,2.2192787E1,5.3888717E0,7.432369E0,2.2477164E0,8.989108E0,3.683318E1,5.8380036E0,6.9777465E0,1.7548313E1,2.5437334E0,1.4991825E0,2.6679182E1,2.6112556E1,1.7943709E0,2.5912092E0,2.7940967E0,1.7948648E0,5.1821203E0,2.542562E0,1.2968203E0,1.0523993E1,3.495107E0,4.4942155E0,1.2961628E0,1.2916349E1,1.7478306E0,2.297197E1,2.8047699E1,2.6193865E1,3.5042492E1,5.13874E0,1.7054049E1,2.5458407E0,2.843031E0,5.934777E0,1.4975924E0,3.8888543E0,3.294433E1,3.09032E0,2.7476835E0,5.1835656E0,1.7941808E0],"tree_param":{"num_deleted":"0","num_feature":"18","num_nodes":"87","size_leaf_vector":"1"}},{"base_weights":[2.8053373E-2,-4.4240376E-1,7.4537945E-1,1.3167332E-1,-7.950047E-1,1.2527457E0,4.094392E-2,9.1226906E-1,-5.470125E-1,-6.598432E-2,-1.0451242E0,-6.1773527E-2,1.3145545E0,6.626625E-1,-3.375072E-1,-5.40014E-1,1.064241E0,2.784178E-1,-1.0403248E0,7.872448E-2,-2.9049298E-1,-1.1416855E0,6.5306604E-1,1.3717052E0,-2.4884143E-1,-5.7232257E-2,8.208423E-1,1.4734918E-1,-9.842547E-1,5.238517E-2,-7.1294434E-2,7.8524336E-2,7.3816717E-1,-7.175209E-2,7.052133E-1,-1.2925571E0,8.434252E-1,-6.962884E-1,3.992259E-1,-8.754288E-1,-9.027892E-2,5.0087668E-2,6.656285E-2,1.6391956E0,1.0797065E0,5.2038975E-2,-6.1743625E-2,9.693107E-1,-5.3451728E-2,5.576295E-1,-7.614314E-2,5.991906E-2,-8.6616024E-2,-4.5436146E-3,5.5116683E-2,-2.9126452E-3,7.572936E-2,-8.026235E-2,1.7736448E-2,5.695296E-2,1.7175239E-2,-4.9990505E-2,3.5865273E-2,3.431179E-2,-5.8474846E-2,-5.8022242E-2,-1.3879641E-3,-5.434366E-2,5.8329113E-2,8.765509E-2,3.4998946E-2,3.7493344E-2,7.7419825E-2,6.2096484E-2,1.16739655E-4,3.924169E-2,-6.1680324E-2,-6.733556E-2,4.2531554E-2],"categories":[],"categories_nodes":[],"categories_segments":[],"categories_sizes":[],"default_left":[0,0,0,0,0,0,0,0,0,0,0,0,0,0,0,0,0,0,0,0,0,0,0,0,0,0,0,0,0,0,0,0,0,0,0,0,0,0,0,0,0,0,0,0,0,0,0,0,0,0,0,0,0,0,0,0,0,0,0,0,0,0,0,0,0,0,0,0,0,0,0,0,0,0,0,0,0,0,0],"id":2,"left_children":[1,3,5,7,9,11,13,15,17,19,21,-1,23,25,27,29,31,33,35,-1,37,39,41,43,45,-1,47,49,51,-1,-1,-1,53,-1,55,57,59,61,63,65,-1,-1,67,69,71,-1,-1,73,-1,75,-1,77,-1,-1,-1,-1,-1,-1,-1,-1,-1,-1,-1,-1,-1,-1,-1,-1,-1,-1,-1,-1,-1,-1,-1,-1,-1,-1,-1],"loss_changes":[1.3491406E2,4.8983532E1,5.6536987E1,4.962975E1,2.7233894E1,1.57739105E1,1.606447E1,1.01766815E1,2.074403E1,1.4937744E1,1.9015778E1,0E0,8.405991E0,8.318756E0,1.3476059E1,8.223682E0,5.3975983E0,1.5330589E1,1.6129723E1,0E0,1.0193722E1,1.7118866E1,1.2893219E0,5.043442E0,6.409265E0,0E0,7.859329E0,1.8095E1,1.4433611E1,0E0,0E0,0E0,7.963848E0,0E0,1.0188755E1,1.5151508E1,2.5058246E-1,1.0443584E1,6.997227E0,1.8678791E1,0E0,0E0,5.7638135E0,3.4368668E0,5.7390556E0,0E0,0E0,6.07885E0,0E0,9.488607E0,0E0,1.0737282E1,0E0,0E0,0E0,0E0,0E0,0E0,0E0,0E0,0E0,0E0,0E0,0E0,0E0,0E0,0E0,0E0,0E0,0E0,0E0,0E0,0E0,0E0,0E0,0E0,0E0,0E0,0E0],"parents":[2147483647,0,0,1,1,2,2,3,3,4,4,5,5,6,6,7,7,8,8,9,9,10,10,12,12,13,13,14,14,15,15,16,16,17,17,18,18,20,20,21,21,22,22,23,23,24,24,26,26,27,27,28,28,32,32,34,34,35,35,36,36,37,37,38,38,39,39,42,42,43,43,44,44,47,47,49,49,51,51],"right_children":[2,4,6,8,10,12,14,16,18,20,22,-1,24,26,28,30,32,34,36,-1,38,40,42,44,46,-1,48,50,52,-1,-1,-1,54,-1,56,58,60,62,64,66,-1,-1,68,70,72,-1,-1,74,-1,76,-1,78,-1,-1,-1,-1,-1,-1,-1,-1,-1,-1,-1,-1,-1,-1,-1,-1,-1,-1,-1,-1,-1,-1,-1,-1,-1,-1,-1],"split_conditions":[1E0,3.2E1,3.6E1,3E0,2E0,1E0,3E0,2E0,3E0,2E0,8E0,-6.1773527E-2,1.1E1,3.9E1,7E0,2E0,3E0,5E0,8E0,7.872448E-2,1.5E1,9.702727E2,3E0,3E0,2E0,-5.7232257E-2,2E1,4E0,4E0,5.238517E-2,-7.1294434E-2,7.8524336E-2,8E0,-7.175209E-2,7E0,1E0,2E0,4E0,1.4E1,4.6E1,-9.027892E-2,5.0087668E-2,4E0,8E0,1.1356666E3,5.2038975E-2,-6.1743625E-2,4E0,-5.3451728E-2,3.4318E3,-7.614314E-2,1.1E1,-8.6616024E-2,-4.5436146E-3,5.5116683E-2,-2.9126452E-3,7.572936E-2,-8.026235E-2,1.7736448E-2,5.695296E-2,1.7175239E-2,-4.9990505E-2,3.5865273E-2,3.431179E-2,-5.8474846E-2,-5.8022242E-2,-1.3879641E-3,-5.434366E-2,5.8329113E-2,8.765509E-2,3.4998946E-2,3.7493344E-2,7.7419825E-2,6.2096484E-2,1.16739655E-4,3.924169E-2,-6.1680324E-2,-6.733556E-2,4.2531554E-2],"split_indices":[9,0,0,12,4,6,11,15,11,5,6,0,12,0,12,5,11,15,6,0,15,13,5,4,4,0,12,7,15,0,0,0,15,0,6,16,7,11,12,0,0,0,11,12,13,0,0,10,0,13,0,12,0,0,0,0,0,0,0,0,0,0,0,0,0,0,0,0,0,0,0,0,0,0,0,0,0,0,0],"split_type":[0,0,0,0,0,0,0,0,0,0,0,0,0,0,0,0,0,0,0,0,0,0,0,0,0,0,0,0,0,0,0,0,0,0,0,0,0,0,0,0,0,0,0,0,0,0,0,0,0,0,0,0,0,0,0,0,0,0,0,0,0,0,0,0,0,0,0,0,0,0,0,0,0,0,0,0,0,0,0],"sum_hessian":[3.978024E2,2.4047229E2,1.573301E2,9.1738106E1,1.4873419E2,9.100547E1,6.632462E1,4.2505688E1,4.9232418E1,3.8316708E1,1.1041748E2,1.7455782E0,8.9259895E1,2.4812206E1,4.1512417E1,3.7847033E0,3.8720985E1,1.8579708E1,3.065271E1,3.88875E0,3.442796E1,1.04786865E2,5.6306143E0,8.6230316E1,3.029577E0,1.4949602E0,2.3317245E1,2.4166983E1,1.7345434E1,1.290004E0,2.4946992E0,1.3674422E1,2.5046564E1,3.2339556E0,1.5345752E1,2.7309793E1,3.3429153E0,2.1669313E1,1.2758644E1,7.6446396E1,2.834047E1,3.0872035E0,2.5434108E0,4.2595894E1,4.3634422E1,1.2886454E0,1.7409315E0,2.2070496E1,1.2467499E0,1.9935938E1,4.2310443E0,7.623798E0,9.721638E0,7.873254E0,1.717331E1,8.374388E0,6.9713645E0,2.2974302E1,4.3354907E0,1.2972752E0,2.0456402E0,1.8079966E1,3.589347E0,1.1260923E1,1.4977212E0,5.6934162E1,1.9512236E1,1.2473943E0,1.2960166E0,3.7215878E1,5.3800163E0,2.7136839E1,1.6497583E1,1.6994814E1,5.075681E0,1.8190468E1,1.7454703E0,2.4903855E0,5.1334124E0],"tree_param":{"num_deleted":"0","num_feature":"18","num_nodes":"79","size_leaf_vector":"1"}},{"base_weights":[-4.8606195E-3,9.72673E-1,-2.873822E-1,4.151383E-1,1.4543679E0,3.9349338E-1,-5.2218795E-1,1.1860956E0,-5.371657E-1,1.5000252E0,1.4347772E-2,1.175044E0,1.6576332E-1,-8.463184E-1,8.668698E-2,1.351714E0,-5.5700436E-2,8.134211E-1,-8.586689E-2,7.9654835E-2,9.5772225E-1,1.4518092E0,-5.591541E-2,1.4190769E0,-1.4714813E-2,-3.038594E-1,-1.1967767E0,5.6994444E-1,-4.5423865E-1,7.1157336E-1,8.131044E-2,-5.2944936E-2,4.2575195E-2,1.1823604E0,-1.0417055E-1,1.1961265E0,8.214482E-3,1.528636E0,2.6347263E-2,7.987276E-2,2.5708152E-2,-5.146805E-1,7.316757E-1,-8.429082E-2,2.5560174E-2,-1.3968745E0,-2.33652E-1,-7.8778364E-2,7.978807E-1,-1.1832429E0,6.2584585E-1,6.590687E-2,-1.175982E-2,1.7244441E-2,7.2396986E-2,5.1423192E-2,-5.5160083E-2,6.6914715E-2,2.5211958E-2,8.518653E-2,3.5682276E-2,2.3680238E-2,-5.4256257E-2,-1.8763546E-2,4.75816E-2,-1.5864303E-2,4.29182E-2,-8.428552E-2,-4.1655697E-2,-7.3404945E-2,1.1337429E-2,5.87666E-2,2.1314388E-2,2.1536518E-2,-7.717278E-2,-5.721853E-2,4.571669E-2],"categories":[],"categories_nodes":[],"categories_segments":[],"categories_sizes":[],"default_left":[0,0,0,0,0,0,0,0,0,0,0,0,0,0,0,0,0,0,0,0,0,0,0,0,0,0,0,0,0,0,0,0,0,0,0,0,0,0,0,0,0,0,0,0,0,0,0,0,0,0,0,0,0,0,0,0,0,0,0,0,0,0,0,0,0,0,0,0,0,0,0,0,0,0,0,0,0],"id":3,"left_children":[1,3,5,7,9,11,13,15,17,19,-1,21,23,25,27,29,31,33,-1,-1,35,37,-1,39,41,43,45,47,49,51,-1,-1,-1,53,55,57,-1,59,-1,-1,-1,61,63,-1,65,67,69,-1,71,73,75,-1,-1,-1,-1,-1,-1,-1,-1,-1,-1,-1,-1,-1,-1,-1,-1,-1,-1,-1,-1,-1,-1,-1,-1,-1,-1],"loss_changes":[1.10325386E2,2.3451126E1,4.9749596E1,3.2145382E1,2.1095428E0,1.4050241E1,4.563468E1,5.0169525E0,3.3097088E1,7.7700806E-1,0E0,1.2981739E1,1.4303164E1,2.8295494E1,2.146126E1,2.5750046E0,4.3490553E0,3.4926248E0,0E0,0E0,1.5419216E0,3.5998535E-1,0E0,4.6322823E-1,2.1342411E1,2.7588995E1,1.7257858E1,2.2423462E1,3.1312714E1,4.9917345E0,0E0,0E0,0E0,1.0975113E0,5.404197E0,4.652977E-3,0E0,8.702469E-1,0E0,0E0,0E0,1.981305E1,5.9450684E0,0E0,1.4504567E1,1.08645935E1,9.935838E0,0E0,5.0796585E0,1.4342892E1,9.370651E0,0E0,0E0,0E0,0E0,0E0,0E0,0E0,0E0,0E0,0E0,0E0,0E0,0E0,0E0,0E0,0E0,0E0,0E0,0E0,0E0,0E0,0E0,0E0,0E0,0E0,0E0],"parents":[2147483647,0,0,1,1,2,2,3,3,4,4,5,5,6,6,7,7,8,8,9,9,11,11,12,12,13,13,14,14,15,15,16,16,17,17,20,20,21,21,23,23,24,24,25,25,26,26,27,27,28,28,29,29,33,33,34,34,35,35,37,37,41,41,42,42,44,44,45,45,46,46,48,48,49,49,50,50],"right_children":[2,4,6,8,10,12,14,16,18,20,-1,22,24,26,28,30,32,34,-1,-1,36,38,-1,40,42,44,46,48,50,52,-1,-1,-1,54,56,58,-1,60,-1,-1,-1,62,64,-1,66,68,70,-1,72,74,76,-1,-1,-1,-1,-1,-1,-1,-1,-1,-1,-1,-1,-1,-1,-1,-1,-1,-1,-1,-1,-1,-1,-1,-1,-1,-1],"split_conditions":[2.44E3,1E0,2E0,2E0,9E0,2E0,1E0,3.3E1,3E0,3.6E1,1.4347772E-2,1.0096E4,2E0,3.3E1,3.7E1,8E0,4E0,3.1E1,-8.586689E-2,7.9654835E-2,4E0,4E1,-5.591541E-2,8.7E2,1E1,5.748182E2,1E0,3E0,7E0,3E0,8.131044E-2,-5.2944936E-2,4.2575195E-2,2.7E1,2E0,3E0,8.214482E-3,5E0,2.6347263E-2,7.987276E-2,2.5708152E-2,4.213E3,5.0594736E2,-8.429082E-2,1E0,4.6E1,5E0,-7.8778364E-2,4.014E3,2.95E3,6.014375E2,6.590687E-2,-1.175982E-2,1.7244441E-2,7.2396986E-2,5.1423192E-2,-5.5160083E-2,6.6914715E-2,2.5211958E-2,8.518653E-2,3.5682276E-2,2.3680238E-2,-5.4256257E-2,-1.8763546E-2,4.75816E-2,-1.5864303E-2,4.29182E-2,-8.428552E-2,-4.1655697E-2,-7.3404945E-2,1.1337429E-2,5.87666E-2,2.1314388E-2,2.1536518E-2,-7.717278E-2,-5.721853E-2,4.571669E-2],"split_indices":[8,9,4,12,12,12,9,0,5,0,0,8,5,0,0,3,7,0,0,0,7,0,0,13,3,13,17,3,6,6,0,0,0,0,5,7,0,6,0,0,0,8,13,0,16,0,12,0,8,8,13,0,0,0,0,0,0,0,0,0,0,0,0,0,0,0,0,0,0,0,0,0,0,0,0,0,0],"split_type":[0,0,0,0,0,0,0,0,0,0,0,0,0,0,0,0,0,0,0,0,0,0,0,0,0,0,0,0,0,0,0,0,0,0,0,0,0,0,0,0,0,0,0,0,0,0,0,0,0,0,0,0,0,0,0,0,0,0,0,0,0,0,0,0,0,0,0,0,0,0,0,0,0,0,0,0,0],"sum_hessian":[3.9746518E2,8.85694E1,3.0889578E2,4.1915913E1,4.665349E1,7.903603E1,2.2985974E2,2.302779E1,1.888812E1,4.462336E1,2.030127E0,1.6894772E1,6.214126E1,1.4975089E2,8.010886E1,2.023988E1,2.7879102E0,8.953039E0,9.9350815E0,3.6432972E1,8.190388E0,1.5402879E1,1.4918938E0,6.9581513E0,5.518311E1,5.9508045E1,9.024284E1,4.2281418E1,3.7827435E1,7.152369E0,1.3087511E1,1.2445072E0,1.543403E0,6.17977E0,2.7732694E0,5.9077425E0,2.2826447E0,1.361877E1,1.7841089E0,5.173107E0,1.7850442E0,3.323276E1,2.1950346E1,1.0662013E1,4.884603E1,7.434637E1,1.5896482E1,3.4927416E0,3.8788677E1,2.252718E1,1.5300255E1,4.1203504E0,3.032019E0,2.041326E0,4.1384435E0,1.2859193E0,1.4873502E0,4.125729E0,1.7820134E0,1.0312676E1,3.3060932E0,1.222424E1,2.1008522E1,3.5215855E0,1.842876E1,3.5039917E1,1.3806115E1,4.7843975E1,2.6502388E1,3.7236693E0,1.2172812E1,1.8169636E1,2.0619041E1,4.0746193E0,1.845256E1,1.728299E0,1.3571956E1],"tree_param":{"num_deleted":"0","num_feature":"18","num_nodes":"77","size_leaf_vector":"1"}},{"base_weights":[1.6185418E-2,4.967435E-1,-4.5142418E-1,1.3639467E0,8.949881E-2,-8.159991E-1,1.3246708E-1,5.86938E-1,1.4577525E0,-3.2866353E-1,8.0787235E-1,-1.2308899E0,-3.137473E-1,6.5630955E-1,-2.4996945E-1,5.503523E-2,-2.3701078E-1,7.644295E-2,3.96767E-1,9.7461987E-1,-4.796282E-1,9.9958545E-1,-3.8440642E-1,-1.4527406E0,-4.4770142E-1,-6.2961876E-1,6.3231647E-1,-3.039819E-1,9.0465856E-1,-5.1429135E-1,4.3918958E-1,-6.1811227E-2,5.3030528E-2,4.8898112E-2,-9.167409E-2,-9.563202E-2,7.589471E-2,-8.6229704E-2,-3.0059296E-1,-5.921467E-2,1.0934201E0,6.721814E-2,-7.753651E-2,-6.035877E-1,-8.611442E-2,4.470183E-1,-7.609672E-2,4.5026675E-1,-1.0064664E0,1.1989939E0,-6.831734E-2,8.2715476E-1,-6.977047E-2,1.3735857E0,3.649745E-1,-7.7252513E-1,6.46854E-1,-3.2512864E-1,1.1812619E0,-5.6104105E-2,4.8492294E-2,3.475121E-2,-5.168568E-2,2.5953693E-2,-4.1078717E-2,7.59352E-2,3.3538308E-2,-5.6856047E-2,2.8290212E-2,-5.5199828E-2,4.3295152E-2,-5.4504555E-2,3.874834E-2,-6.216975E-2,1.805929E-2,3.4700204E-2,7.670048E-2,5.434808E-2,1.7893786E-2,2.4044868E-2,7.3238365E-2,-7.033979E-2,4.681932E-2,1.1227457E-2,-6.2645175E-2,5.192708E-2,4.7681635E-4,1.640054E-2,-6.2467378E-2,6.649722E-2,2.4158726E-2],"categories":[],"categories_nodes":[],"categories_segments":[],"categories_sizes":[],"default_left":[0,0,0,0,0,0,0,0,0,0,0,0,0,0,0,0,0,0,0,0,0,0,0,0,0,0,0,0,0,0,0,0,0,0,0,0,0,0,0,0,0,0,0,0,0,0,0,0,0,0,0,0,0,0,0,0,0,0,0,0,0,0,0,0,0,0,0,0,0,0,0,0,0,0,0,0,0,0,0,0,0,0,0,0,0,0,0,0,0,0,0],"id":4,"left_children":[1,3,5,7,9,11,13,15,17,19,21,23,25,27,29,-1,31,-1,33,35,37,39,41,43,45,47,49,51,53,55,57,-1,-1,-1,59,61,-1,-1,63,-1,65,-1,-1,67,-1,69,-1,71,73,75,-1,77,-1,79,81,83,85,87,89,-1,-1,-1,-1,-1,-1,-1,-1,-1,-1,-1,-1,-1,-1,-1,-1,-1,-1,-1,-1,-1,-1,-1,-1,-1,-1,-1,-1,-1,-1,-1,-1],"loss_changes":[8.854824E1,6.8504036E1,4.262578E1,3.6651459E0,4.030681E1,2.5265099E1,1.5717104E1,3.7978146E0,3.5177078E0,1.7183863E1,1.1660313E1,1.1003098E1,1.7440273E1,8.1537895E0,8.532017E0,0E0,6.538759E0,0E0,1.4477788E0,5.4651957E0,1.6602669E1,1.0060764E1,1.7319523E1,1.0821335E1,1.62992E1,1.8055935E1,1.8370817E1,1.0458762E1,6.2050304E0,1.0520035E1,7.8594832E0,0E0,0E0,0E0,4.9316406E0,3.7011673E0,0E0,0E0,2.962115E1,0E0,6.4469223E0,0E0,0E0,9.393942E0,0E0,7.218351E0,0E0,6.7869787E0,1.09395485E1,9.7278404E-1,0E0,1.3878965E-1,0E0,4.2029572E-1,1.5169317E1,1.35938835E1,1.6436851E0,4.802422E0,7.3905945E-2,0E0,0E0,0E0,0E0,0E0,0E0,0E0,0E0,0E0,0E0,0E0,0E0,0E0,0E0,0E0,0E0,0E0,0E0,0E0,0E0,0E0,0E0,0E0,0E0,0E0,0E0,0E0,0E0,0E0,0E0,0E0,0E0],"parents":[2147483647,0,0,1,1,2,2,3,3,4,4,5,5,6,6,7,7,8,8,9,9,10,10,11,11,12,12,13,13,14,14,16,16,18,18,19,19,20,20,21,21,22,22,23,23,24,24,25,25,26,26,27,27,28,28,29,29,30,30,34,34,35,35,38,38,40,40,43,43,45,45,47,47,48,48,49,49,51,51,53,53,54,54,55,55,56,56,57,57,58,58],"right_children":[2,4,6,8,10,12,14,16,18,20,22,24,26,28,30,-1,32,-1,34,36,38,40,42,44,46,48,50,52,54,56,58,-1,-1,-1,60,62,-1,-1,64,-1,66,-1,-1,68,-1,70,-1,72,74,76,-1,78,-1,80,82,84,86,88,90,-1,-1,-1,-1,-1,-1,-1,-1,-1,-1,-1,-1,-1,-1,-1,-1,-1,-1,-1,-1,-1,-1,-1,-1,-1,-1,-1,-1,-1,-1,-1,-1],"split_conditions":[3.4E1,2E0,1E0,2E0,1E0,9E0,3E0,3E0,4.1055E3,2E0,9E0,5E1,1E0,5.7775E2,2.2E1,5.503523E-2,1.7099E3,7.644295E-2,2E0,1E1,2.6E1,1E0,2E0,2E0,9.619E2,1E1,2E0,3E0,1.0798182E3,5.5E1,2E0,-6.1811227E-2,5.3030528E-2,4.8898112E-2,3E1,5.135E2,7.589471E-2,-8.6229704E-2,5E0,-5.921467E-2,3E0,6.721814E-2,-7.753651E-2,1.4E1,-8.611442E-2,2E0,-7.609672E-2,5.220909E2,4E0,1.6E1,-6.831734E-2,3E0,-6.977047E-2,5E0,8E0,3.7E1,2E0,4.4E1,4E0,-5.6104105E-2,4.8492294E-2,3.475121E-2,-5.168568E-2,2.5953693E-2,-4.1078717E-2,7.59352E-2,3.3538308E-2,-5.6856047E-2,2.8290212E-2,-5.5199828E-2,4.3295152E-2,-5.4504555E-2,3.874834E-2,-6.216975E-2,1.805929E-2,3.4700204E-2,7.670048E-2,5.434808E-2,1.7893786E-2,2.4044868E-2,7.3238365E-2,-7.033979E-2,4.681932E-2,1.1227457E-2,-6.2645175E-2,5.192708E-2,4.7681635E-4,1.640054E-2,-6.2467378E-2,6.649722E-2,2.4158726E-2],"split_indices":[0,12,14,15,14,15,4,4,13,11,12,0,17,13,15,0,13,0,7,3,0,1,1,4,13,3,7,11,13,0,2,0,0,0,15,13,0,0,12,0,4,0,0,12,0,15,0,13,11,3,0,3,0,12,3,0,7,0,4,0,0,0,0,0,0,0,0,0,0,0,0,0,0,0,0,0,0,0,0,0,0,0,0,0,0,0,0,0,0,0,0],"split_type":[0,0,0,0,0,0,0,0,0,0,0,0,0,0,0,0,0,0,0,0,0,0,0,0,0,0,0,0,0,0,0,0,0,0,0,0,0,0,0,0,0,0,0,0,0,0,0,0,0,0,0,0,0,0,0,0,0,0,0,0,0,0,0,0,0,0,0,0,0,0,0,0,0,0,0,0,0,0,0,0,0,0,0,0,0,0,0,0,0,0,0],"sum_hessian":[3.9205148E2,1.9331801E2,1.9873346E2,6.102332E1,1.322947E2,1.2209884E2,7.663462E1,7.3552833E0,5.3668034E1,8.396278E1,4.833191E1,6.607012E1,5.602872E1,3.20365E1,4.459812E1,4.3235064E0,3.0317767E0,4.9883877E1,3.7841587E0,8.149751E0,7.5813034E1,4.1776115E1,6.5557933E0,5.081972E1,1.5250401E1,4.225509E1,1.3773631E1,6.5367665E0,2.5499731E1,3.2418125E1,1.2179995E1,1.7395654E0,1.2922113E0,1.2703546E0,2.513804E0,3.0214527E0,5.128298E0,8.446375E0,6.736666E1,1.2422937E0,4.053382E1,2.579585E0,3.9762082E0,1.3025362E1,3.7794357E1,8.638957E0,6.611443E0,1.0880723E1,3.1374367E1,1.104279E1,2.7308404E0,3.3288934E0,3.2078729E0,1.2817523E1,1.2682209E1,2.6793951E1,5.6241746E0,6.276845E0,5.9031496E0,1.2466447E0,1.2671592E0,1.780158E0,1.2412947E0,2.6180384E1,4.118628E1,1.8911446E1,2.1622377E1,8.963415E0,4.0619473E0,1.489221E0,7.1497364E0,1.4839113E0,9.396812E0,2.6819141E1,4.5552244E0,5.6291633E0,5.413627E0,1.2954543E0,2.0334392E0,1.7693405E0,1.10481825E1,2.7361858E0,9.946023E0,8.884929E0,1.7909023E1,3.093436E0,2.5307384E0,4.05576E0,2.221085E0,4.120431E0,1.7827183E0],"tree_param":{"num_deleted":"0","num_feature":"18","num_nodes":"91","size_leaf_vector":"1"}},{"base_weights":[-2.5756821E-2,9.058718E-1,-2.9068202E-1,1.1557646E0,4.2442864E-1,-5.8442754E-1,2.2107859E-1,9.027247E-1,7.436049E-2,1.2952145E0,9.851758E-2,-1.06034964E-1,-1.1099229E0,-7.844639E-2,3.7607163E-1,1.014511E0,-5.6186296E-2,2.4879577E-2,7.191508E-2,-6.826159E-2,4.014078E-1,-8.236754E-1,3.7439224E-1,-1.1921892E0,5.8543396E-1,6.6722065E-2,1.154198E0,1.2166312E0,-7.202815E-2,-1.650913E-1,8.6289036E-1,1.8559393E-1,-1.3471783E0,7.940071E-1,-4.3052346E-1,-1.4784259E0,-5.4787946E-1,-4.7844533E-2,6.88401E-2,-2.974481E-1,5.33634E-1,1.3747321E0,6.356911E-1,2.9741911E-2,6.691813E-2,-2.869722E-2,5.0116815E-2,3.695923E-2,-7.082077E-2,7.7607515E-3,6.588936E-2,-7.537859E-2,4.505011E-2,-7.633628E-2,3.752837E-2,7.150408E-2,2.2557452E-2,1.0946046E-2,-5.9741806E-2,-7.7396296E-2,-7.5051687E-3,3.7700787E-2,-4.4526324E-2,3.48737E-2,-3.31639E-2,5.0410666E-2,5.357001E-3,2.1128457E-3,7.9837374E-2,-5.242554E-2,5.1591177E-2],"categories":[],"categories_nodes":[],"categories_segments":[],"categories_sizes":[],"default_left":[0,0,0,0,0,0,0,0,0,0,0,0,0,0,0,0,0,0,0,0,0,0,0,0,0,0,0,0,0,0,0,0,0,0,0,0,0,0,0,0,0,0,0,0,0,0,0,0,0,0,0,0,0,0,0,0,0,0,0,0,0,0,0,0,0,0,0,0,0,0,0],"id":5,"left_children":[1,3,5,7,9,11,13,15,-1,17,19,21,23,-1,25,27,-1,-1,-1,-1,29,31,33,35,37,39,41,43,45,47,49,51,53,55,57,59,61,-1,-1,63,65,67,69,-1,-1,-1,-1,-1,-1,-1,-1,-1,-1,-1,-1,-1,-1,-1,-1,-1,-1,-1,-1,-1,-1,-1,-1,-1,-1,-1,-1],"loss_changes":[9.35507E1,9.606773E0,4.4482033E1,3.242569E0,8.459581E0,4.7074493E1,3.064188E1,8.739252E0,0E0,2.1540546E-1,1.0789433E1,3.4568897E1,1.31599045E1,0E0,2.4113178E1,7.185051E0,0E0,0E0,0E0,0E0,5.34807E0,2.1469004E1,2.067822E1,1.4966827E1,7.183103E0,1.25659E1,2.38797E0,1.270649E0,3.817763E0,1.2111633E1,3.3796282E0,1.9037683E1,1.1151501E1,8.06278E0,1.0825007E1,5.1815033E0,1.3118623E1,0E0,0E0,1.5617145E1,6.436082E0,5.5986443E0,8.001997E0,0E0,0E0,0E0,0E0,0E0,0E0,0E0,0E0,0E0,0E0,0E0,0E0,0E0,0E0,0E0,0E0,0E0,0E0,0E0,0E0,0E0,0E0,0E0,0E0,0E0,0E0,0E0,0E0],"parents":[2147483647,0,0,1,1,2,2,3,3,4,4,5,5,6,6,7,7,9,9,10,10,11,11,12,12,14,14,15,15,20,20,21,21,22,22,23,23,24,24,25,25,26,26,27,27,28,28,29,29,30,30,31,31,32,32,33,33,34,34,35,35,36,36,39,39,40,40,41,41,42,42],"right_children":[2,4,6,8,10,12,14,16,-1,18,20,22,24,-1,26,28,-1,-1,-1,-1,30,32,34,36,38,40,42,44,46,48,50,52,54,56,58,60,62,-1,-1,64,66,68,70,-1,-1,-1,-1,-1,-1,-1,-1,-1,-1,-1,-1,-1,-1,-1,-1,-1,-1,-1,-1,-1,-1,-1,-1,-1,-1,-1,-1],"split_conditions":[2.44E3,3.2E1,7E0,1.6E1,2E0,4.969E3,5.16E2,1.1E1,7.436049E-2,3.8954544E2,2E0,7E0,1.9636E4,-7.844639E-2,9.355E3,4E0,-5.6186296E-2,2.4879577E-2,7.191508E-2,-6.826159E-2,2.311E3,2.9E1,3E0,1.4E1,5.2E1,1.1E1,1.0685E4,4.11375E2,3.1E1,2.093E3,4.3E1,3.376E3,4.841E3,2E0,3E0,5.8E1,1.6E1,-4.7844533E-2,6.88401E-2,3.419E3,3E0,2E0,9E0,2.9741911E-2,6.691813E-2,-2.869722E-2,5.0116815E-2,3.695923E-2,-7.082077E-2,7.7607515E-3,6.588936E-2,-7.537859E-2,4.505011E-2,-7.633628E-2,3.752837E-2,7.150408E-2,2.2557452E-2,1.0946046E-2,-5.9741806E-2,-7.7396296E-2,-7.5051687E-3,3.7700787E-2,-4.4526324E-2,3.48737E-2,-3.31639E-2,5.0410666E-2,5.357001E-3,2.1128457E-3,7.9837374E-2,-5.242554E-2,5.1591177E-2],"split_indices":[8,0,6,15,7,8,13,3,0,13,15,15,8,0,8,4,0,0,0,0,8,0,6,3,0,3,8,13,0,8,0,8,8,4,7,0,3,0,0,8,4,1,3,0,0,0,0,0,0,0,0,0,0,0,0,0,0,0,0,0,0,0,0,0,0,0,0,0,0,0,0],"split_type":[0,0,0,0,0,0,0,0,0,0,0,0,0,0,0,0,0,0,0,0,0,0,0,0,0,0,0,0,0,0,0,0,0,0,0,0,0,0,0,0,0,0,0,0,0,0,0,0,0,0,0,0,0,0,0,0,0,0,0,0,0,0,0,0,0,0,0,0,0,0,0],"sum_hessian":[3.7696957E2,8.292798E1,2.940416E2,5.366998E1,2.9257998E1,1.8672264E2,1.0731895E2,3.25463E1,2.1123678E1,7.158205E0,2.2099792E1,9.837094E1,8.835169E1,7.8250704E0,9.949388E1,3.1318048E1,1.2282504E0,1.7698609E0,5.3883443E0,3.1876729E0,1.891212E1,3.9160416E1,5.9210526E1,8.454594E1,3.805761E0,7.196818E1,2.7525703E1,2.6305008E1,5.013041E0,8.778372E0,1.0133749E1,1.3595302E1,2.5565115E1,3.892952E1,2.0281004E1,5.7643185E1,2.690275E1,1.2196273E0,2.586134E0,4.0636494E1,3.133168E1,1.815331E1,9.372393E0,5.2704554E0,2.1034554E1,3.734267E0,1.2787738E0,5.3334236E0,3.444948E0,4.489977E0,5.643772E0,3.70926E0,9.886042E0,2.3800245E1,1.7648685E0,1.2523924E1,2.6405598E1,1.1350197E1,8.930808E0,5.4620045E1,3.0231383E0,5.355155E0,2.1547594E1,1.0681152E1,2.9955343E1,1.4184255E1,1.7147427E1,2.7626956E0,1.5390615E1,1.4710765E0,7.901316E0],"tree_param":{"num_deleted":"0","num_feature":"18","num_nodes":"71","size_leaf_vector":"1"}},{"base_weights":[-4.7277045E-2,6.676679E-1,-3.9590108E-1,7.6048005E-1,-6.968357E-2,-8.251805E-1,-7.918108E-2,4.6698958E-1,1.2269005E0,-1.1184026E0,-2.2267854E-1,2.6158627E-2,-7.840907E-2,-6.914544E-1,6.3316625E-1,1.2687172E0,1.1226004E-2,9.446513E-2,-1.2214816E0,6.931885E-1,-8.718032E-1,-7.672547E-2,1.0973238E0,-7.488909E-2,5.537826E-1,6.990475E-2,3.8446376E-1,5.598112E-1,1.3547126E0,-6.235636E-2,7.6159686E-2,-8.201327E-2,-9.138667E-1,1.0034956E0,-5.623537E-2,1.1160843E0,-1.4436445E0,6.171758E-1,-2.180316E-1,6.34748E-2,1.2757017E-2,4.8979342E-2,4.36063E-3,5.197978E-2,2.781794E-3,6.2141646E-2,-1.1476578E-2,7.2035186E-2,4.1466024E-2,-2.259139E-2,-7.969332E-2,6.650948E-2,1.1271779E-2,6.622674E-2,2.2190874E-2,-8.592556E-2,5.3615697E-2,-6.3371845E-3,5.744208E-2,-2.3140123E-2,7.4238665E-3],"categories":[],"categories_nodes":[],"categories_segments":[],"categories_sizes":[],"default_left":[0,0,0,0,0,0,0,0,0,0,0,0,0,0,0,0,0,0,0,0,0,0,0,0,0,0,0,0,0,0,0,0,0,0,0,0,0,0,0,0,0,0,0,0,0,0,0,0,0,0,0,0,0,0,0,0,0,0,0,0,0],"id":6,"left_children":[1,3,5,7,-1,9,11,13,15,17,19,21,-1,23,25,27,-1,29,31,33,35,37,39,-1,41,-1,43,45,47,-1,-1,-1,49,51,-1,53,55,57,59,-1,-1,-1,-1,-1,-1,-1,-1,-1,-1,-1,-1,-1,-1,-1,-1,-1,-1,-1,-1,-1,-1],"loss_changes":[9.223056E1,2.427005E1,3.37426E1,1.540728E1,0E0,1.8382912E1,2.2658072E1,1.4542019E1,1.5792313E0,8.953232E0,2.1871786E1,1.5033742E1,0E0,1.0538198E1,1.1751362E1,1.8310394E0,0E0,1.4292443E1,6.90361E0,9.813005E0,2.5912865E1,1.2361557E1,1.4092512E0,0E0,8.146192E-1,0E0,1.0740747E1,3.6815302E0,4.8477936E-1,0E0,0E0,0E0,1.1803883E1,3.1770859E0,0E0,1.6044092E-1,1.3625622E1,8.593203E0,9.429135E0,0E0,0E0,0E0,0E0,0E0,0E0,0E0,0E0,0E0,0E0,0E0,0E0,0E0,0E0,0E0,0E0,0E0,0E0,0E0,0E0,0E0,0E0],"parents":[2147483647,0,0,1,1,2,2,3,3,5,5,6,6,7,7,8,8,9,9,10,10,11,11,13,13,14,14,15,15,17,17,18,18,19,19,20,20,21,21,22,22,24,24,26,26,27,27,28,28,32,32,33,33,35,35,36,36,37,37,38,38],"right_children":[2,4,6,8,-1,10,12,14,16,18,20,22,-1,24,26,28,-1,30,32,34,36,38,40,-1,42,-1,44,46,48,-1,-1,-1,50,52,-1,54,56,58,60,-1,-1,-1,-1,-1,-1,-1,-1,-1,-1,-1,-1,-1,-1,-1,-1,-1,-1,-1,-1,-1,-1],"split_conditions":[3E0,1.0502E4,7E0,1E0,-6.968357E-2,1E0,1.3726E4,2E0,3.4318E3,2E0,3E0,5E1,-7.840907E-2,1E0,2.045E3,8.87E2,1.1226004E-2,6E0,2E0,1.1E1,2.345E3,2.44E3,6.43E3,-7.488909E-2,2E0,6.990475E-2,2E0,3E0,2E0,-6.235636E-2,7.6159686E-2,-8.201327E-2,3E0,3E0,-5.623537E-2,4E0,1.9081E4,1E0,7E0,6.34748E-2,1.2757017E-2,4.8979342E-2,4.36063E-3,5.197978E-2,2.781794E-3,6.2141646E-2,-1.1476578E-2,7.2035186E-2,4.1466024E-2,-2.259139E-2,-7.969332E-2,6.650948E-2,1.1271779E-2,6.622674E-2,2.2190874E-2,-8.592556E-2,5.3615697E-2,-6.3371845E-3,5.744208E-2,-2.3140123E-2,7.4238665E-3],"split_indices":[12,8,15,9,0,9,8,15,13,11,4,15,0,16,8,13,0,6,15,12,8,8,8,0,4,0,1,4,12,0,0,0,3,11,0,4,8,9,6,0,0,0,0,0,0,0,0,0,0,0,0,0,0,0,0,0,0,0,0,0,0],"split_type":[0,0,0,0,0,0,0,0,0,0,0,0,0,0,0,0,0,0,0,0,0,0,0,0,0,0,0,0,0,0,0,0,0,0,0,0,0,0,0,0,0,0,0,0,0,0,0,0,0,0,0,0,0,0,0,0,0,0,0,0,0],"sum_hessian":[3.6797626E2,1.2031784E2,2.476584E2,1.157378E2,4.5800366E0,1.04463776E2,1.4319463E2,7.226622E1,4.3471584E1,6.9690796E1,3.477298E1,1.3465114E2,8.543498E0,8.669411E0,6.3596806E1,4.1475624E1,1.9959592E0,5.4654694E0,6.422533E1,1.4394923E1,2.0378056E1,1.23698425E2,1.095271E1,5.1389694E0,3.5304418E0,1.4470044E1,4.9126762E1,5.299425E0,3.61762E1,2.8842413E0,2.5812283E0,2.5363506E1,3.886182E1,1.2678712E1,1.7162116E0,4.3398232E0,1.6038233E1,2.0358387E1,1.03340034E2,8.67238E0,2.2803292E0,1.2709703E0,2.2594714E0,1.5695237E1,3.3431522E1,2.53305E0,2.766375E0,2.9590902E1,6.585299E0,2.4130404E1,1.4731417E1,8.429631E0,4.24908E0,2.5720525E0,1.7677709E0,1.4744376E1,1.2938564E0,8.802845E0,1.1555543E1,6.1802715E1,4.153732E1],"tree_param":{"num_deleted":"0","num_feature":"18","num_nodes":"61","size_leaf_vector":"1"}},{"base_weights":[-9.531263E-3,9.3502873E-1,-2.8371185E-1,1.3186415E0,-3.0454867E-2,-6.2671053E-1,3.3770132E-1,9.0611386E-1,1.4434359E0,-8.465166E-1,7.4423456E-1,-8.291089E-1,-2.1563123E-1,8.0380565E-1,-2.555763E-1,1.2279403E0,2.7401793E-1,7.4838944E-2,9.834197E-3,-7.373206E-2,1.7416224E-1,1.4317442E0,-5.9842163E-1,-4.6870667E-1,-1.1645352E0,-7.376332E-2,-2.8528623E-2,-5.7749737E-2,8.83368E-1,7.5226444E-1,-5.7427037E-1,2.1577865E-2,6.672969E-2,5.0289333E-2,-4.3806157E-1,5.5987645E-2,-5.565477E-2,1.9976621E-2,8.09555E-2,-7.073838E-2,5.3422835E-2,-1.0603861E0,-3.490366E-2,-1.3217605E0,-1.4013286E-1,1.371325E-1,-7.3842354E-2,2.1564013E-1,1.0710471E0,-4.9927264E-2,1.0542477E0,-9.850185E-1,5.175424E-1,-6.6021435E-2,4.6249494E-2,-6.1209477E-2,4.8654314E-2,-6.511472E-2,5.1366375E-3,-6.974454E-2,3.800453E-2,6.363382E-2,-4.1069284E-2,4.0743884E-2,-7.4739577E-3,3.323224E-2,-6.551126E-2,5.7365086E-2,-2.5665972E-3,6.908646E-2,1.0122327E-3,-7.259152E-2,2.9034931E-2,-6.578835E-2,6.994598E-2],"categories":[],"categories_nodes":[],"categories_segments":[],"categories_sizes":[],"default_left":[0,0,0,0,0,0,0,0,0,0,0,0,0,0,0,0,0,0,0,0,0,0,0,0,0,0,0,0,0,0,0,0,0,0,0,0,0,0,0,0,0,0,0,0,0,0,0,0,0,0,0,0,0,0,0,0,0,0,0,0,0,0,0,0,0,0,0,0,0,0,0,0,0,0,0],"id":7,"left_children":[1,3,5,7,9,11,13,15,17,19,21,23,25,27,29,31,33,-1,-1,-1,35,37,39,41,43,-1,45,-1,47,49,51,-1,-1,-1,53,-1,-1,-1,-1,-1,-1,55,57,59,61,63,-1,65,67,-1,69,71,73,-1,-1,-1,-1,-1,-1,-1,-1,-1,-1,-1,-1,-1,-1,-1,-1,-1,-1,-1,-1,-1,-1],"loss_changes":[9.758782E1,3.1438354E1,6.245326E1,1.8165665E0,1.648732E1,1.5505554E1,2.9104773E1,3.0774384E0,2.6923523E0,8.388167E0,1.3226007E1,1.4681877E1,1.4934142E1,1.017905E1,1.5444442E1,3.4417343E-1,4.0616083E0,0E0,0E0,0E0,8.2163315E0,1.1240444E0,8.646085E0,1.5978167E1,1.02145E1,0E0,1.3721665E1,0E0,6.917267E0,7.21854E0,1.6689213E1,0E0,0E0,0E0,6.2950535E0,0E0,0E0,0E0,0E0,0E0,0E0,9.97172E0,6.594095E0,9.564644E0,1.0391159E1,1.0121345E1,0E0,1.0302858E1,3.848114E0,0E0,3.5047388E0,2.0255499E1,1.8835974E1,0E0,0E0,0E0,0E0,0E0,0E0,0E0,0E0,0E0,0E0,0E0,0E0,0E0,0E0,0E0,0E0,0E0,0E0,0E0,0E0,0E0,0E0],"parents":[2147483647,0,0,1,1,2,2,3,3,4,4,5,5,6,6,7,7,8,8,9,9,10,10,11,11,12,12,13,13,14,14,15,15,16,16,20,20,21,21,22,22,23,23,24,24,26,26,28,28,29,29,30,30,34,34,41,41,42,42,43,43,44,44,45,45,47,47,48,48,50,50,51,51,52,52],"right_children":[2,4,6,8,10,12,14,16,18,20,22,24,26,28,30,32,34,-1,-1,-1,36,38,40,42,44,-1,46,-1,48,50,52,-1,-1,-1,54,-1,-1,-1,-1,-1,-1,56,58,60,62,64,-1,66,68,-1,70,72,74,-1,-1,-1,-1,-1,-1,-1,-1,-1,-1,-1,-1,-1,-1,-1,-1,-1,-1,-1,-1,-1,-1],"split_conditions":[2E0,3.4E1,1E0,4E0,1E0,7E0,3.6E1,3E0,4.1055E3,7E0,5E0,3E0,5.0594736E2,1E0,2.95E3,2.013E3,1.601E3,7.4838944E-2,9.834197E-3,-7.373206E-2,4.306E3,3.9E1,4E0,7E0,1E0,-7.376332E-2,1.33675E3,-5.7749737E-2,3E0,3.46E2,2.2E1,2.1577865E-2,6.672969E-2,5.0289333E-2,2.863E3,5.5987645E-2,-5.565477E-2,1.9976621E-2,8.09555E-2,-7.073838E-2,5.3422835E-2,1.1103E4,3.3405264E2,5.8E1,2.559E3,3E0,-7.3842354E-2,6E0,1.1E1,-4.9927264E-2,5.220909E2,1.874E4,7E0,-6.6021435E-2,4.6249494E-2,-6.1209477E-2,4.8654314E-2,-6.511472E-2,5.1366375E-3,-6.974454E-2,3.800453E-2,6.363382E-2,-4.1069284E-2,4.0743884E-2,-7.4739577E-3,3.323224E-2,-6.551126E-2,5.7365086E-2,-2.5665972E-3,6.908646E-2,1.0122327E-3,-7.259152E-2,2.9034931E-2,-6.578835E-2,6.994598E-2],"split_indices":[12,0,14,3,14,6,0,5,13,6,15,6,13,6,8,8,8,0,0,0,8,0,10,15,16,0,13,0,15,13,15,0,0,0,8,0,0,0,0,0,0,8,13,15,8,11,0,12,12,0,13,8,6,0,0,0,0,0,0,0,0,0,0,0,0,0,0,0,0,0,0,0,0,0,0],"split_type":[0,0,0,0,0,0,0,0,0,0,0,0,0,0,0,0,0,0,0,0,0,0,0,0,0,0,0,0,0,0,0,0,0,0,0,0,0,0,0,0,0,0,0,0,0,0,0,0,0,0,0,0,0,0,0,0,0,0,0,0,0,0,0,0,0,0,0,0,0,0,0,0,0,0,0],"sum_hessian":[3.7479172E2,8.377481E1,2.910169E2,5.969184E1,2.4082972E1,1.8750955E2,1.0350735E2,1.5782171E1,4.3909668E1,1.1683157E1,1.2399814E1,1.2496506E2,6.2544495E1,5.7767708E1,4.5739643E1,9.833087E0,5.9490848E0,4.1915737E1,1.9939318E0,6.9570384E0,4.7261186E0,8.156772E0,4.2430425E0,6.139543E1,6.3569622E1,7.198315E0,5.534618E1,1.7272215E0,5.6040485E1,1.06619E1,3.5077744E1,1.7573395E0,8.0757475E0,2.73056E0,3.218525E0,2.7996693E0,1.9264492E0,1.734369E0,6.4224024E0,2.9496918E0,1.2933509E0,2.536069E1,3.6034744E1,5.48595E1,8.710122E0,5.0477764E1,4.8684163E0,1.2766957E1,4.327353E1,1.2291322E0,9.432768E0,2.5559778E1,9.517965E0,1.9727447E0,1.2457801E0,2.3838402E1,1.5222878E0,2.70104E0,3.3333702E1,5.3316597E1,1.5429022E0,2.5512E0,6.1589217E0,1.44544525E1,3.602331E1,1.0300364E1,2.4665937E0,4.0499763E1,2.7737653E0,6.9084773E0,2.5242906E0,1.9745483E1,5.814295E0,2.9301832E0,6.5877824E0],"tree_param":{"num_deleted":"0","num_feature":"18","num_nodes":"75","size_leaf_vector":"1"}},{"base_weights":[1.823888E-2,-3.3764714E-1,5.8943325E-1,1.4669447E-1,-7.6518315E-1,9.0722185E-1,1.3924985E-1,-3.113112E-1,5.5881256E-1,-5.350711E-1,-1.43734E0,-6.2242307E-2,9.796968E-1,7.2002983E-1,-2.8466946E-1,6.083573E-2,-4.110586E-1,7.86064E-1,-6.738813E-1,-7.5732714E-1,9.46907E-2,-7.824446E-2,2.383371E-2,1.3216877E0,6.996947E-1,-4.861517E-2,8.421466E-1,4.9066056E-2,-7.224988E-2,-1.2057396E0,-2.0403491E-1,1.1890004E0,5.0675744E-1,-7.519908E-2,6.015838E-1,1.7136556E-1,-1.0297775E0,-6.8997644E-2,4.057274E-1,9.8168623E-1,1.5123825E0,-2.1300636E-1,8.957524E-1,5.3180027E-1,1.302041E0,-2.0834671E-1,7.867651E-1,1.678186E-2,-7.74643E-2,6.50217E-4,-7.527203E-2,6.5311715E-2,2.4662973E-2,3.9672405E-2,-5.147263E-3,7.5897635E-3,4.8954364E-2,2.796951E-2,-6.281682E-2,-5.8736052E-2,6.72737E-2,8.597105E-2,1.3402692E-3,6.1118852E-2,2.2239754E-2,2.6050348E-2,7.7882215E-2,3.5279896E-2,-7.405155E-2,5.692884E-2,1.0438356E-2,4.7022592E-2,-6.463025E-2,2.6368279E-2,7.0679575E-2,2.1211851E-2,-3.0657386E-2,-3.1358225E-3,6.664081E-2],"categories":[],"categories_nodes":[],"categories_segments":[],"categories_sizes":[],"default_left":[0,0,0,0,0,0,0,0,0,0,0,0,0,0,0,0,0,0,0,0,0,0,0,0,0,0,0,0,0,0,0,0,0,0,0,0,0,0,0,0,0,0,0,0,0,0,0,0,0,0,0,0,0,0,0,0,0,0,0,0,0,0,0,0,0,0,0,0,0,0,0,0,0,0,0,0,0,0,0],"id":8,"left_children":[1,3,5,7,9,11,13,15,17,19,21,-1,23,25,27,-1,29,31,33,35,37,-1,-1,39,41,-1,43,45,-1,47,49,51,53,-1,55,57,59,-1,61,63,65,67,69,71,73,75,77,-1,-1,-1,-1,-1,-1,-1,-1,-1,-1,-1,-1,-1,-1,-1,-1,-1,-1,-1,-1,-1,-1,-1,-1,-1,-1,-1,-1,-1,-1,-1,-1],"loss_changes":[7.7077614E1,4.8494377E1,2.0695557E1,2.100943E1,1.8450699E1,1.4498299E1,1.5323729E1,8.566657E0,1.690649E1,1.3251642E1,8.338028E0,0E0,7.0156555E0,6.23201E0,1.409454E1,0E0,8.05037E0,5.004654E0,1.1109478E1,1.7815025E1,1.2234015E1,0E0,0E0,8.62648E-1,8.7295265E0,0E0,2.8709393E0,5.6882815E0,0E0,5.931011E0,1.1659608E1,9.58786E-1,5.529787E0,0E0,6.178603E-1,9.937508E0,2.0185879E1,0E0,1.080152E1,1.5056591E0,1.4623642E-1,1.181447E1,6.3469296E0,1.3589708E1,6.4151764E-2,5.985128E0,3.671453E0,0E0,0E0,0E0,0E0,0E0,0E0,0E0,0E0,0E0,0E0,0E0,0E0,0E0,0E0,0E0,0E0,0E0,0E0,0E0,0E0,0E0,0E0,0E0,0E0,0E0,0E0,0E0,0E0,0E0,0E0,0E0,0E0],"parents":[2147483647,0,0,1,1,2,2,3,3,4,4,5,5,6,6,7,7,8,8,9,9,10,10,12,12,13,13,14,14,16,16,17,17,18,18,19,19,20,20,23,23,24,24,26,26,27,27,29,29,30,30,31,31,32,32,34,34,35,35,36,36,38,38,39,39,40,40,41,41,42,42,43,43,44,44,45,45,46,46],"right_children":[2,4,6,8,10,12,14,16,18,20,22,-1,24,26,28,-1,30,32,34,36,38,-1,-1,40,42,-1,44,46,-1,48,50,52,54,-1,56,58,60,-1,62,64,66,68,70,72,74,76,78,-1,-1,-1,-1,-1,-1,-1,-1,-1,-1,-1,-1,-1,-1,-1,-1,-1,-1,-1,-1,-1,-1,-1,-1,-1,-1,-1,-1,-1,-1,-1,-1],"split_conditions":[1E0,3.3E1,3.6E1,8.45E2,1.0725E3,1E0,3E0,2.1E1,4E0,4.6E1,5.2E1,-6.2242307E-2,3E0,3.9E1,4E0,6.083573E-2,2.7E1,2E0,4E0,2E0,2E0,-7.824446E-2,2.383371E-2,1E1,3E0,-4.861517E-2,7E0,2.5E1,-7.224988E-2,2E0,7.321667E2,4E0,3E0,-7.519908E-2,8E0,7.364286E2,1.0415E3,-6.8997644E-2,4.7E1,3E1,2E1,3E0,3.1E1,1.5841818E3,6.897273E2,3E0,6E0,1.678186E-2,-7.74643E-2,6.50217E-4,-7.527203E-2,6.5311715E-2,2.4662973E-2,3.9672405E-2,-5.147263E-3,7.5897635E-3,4.8954364E-2,2.796951E-2,-6.281682E-2,-5.8736052E-2,6.72737E-2,8.597105E-2,1.3402692E-3,6.1118852E-2,2.2239754E-2,2.6050348E-2,7.7882215E-2,3.5279896E-2,-7.405155E-2,5.692884E-2,1.0438356E-2,4.7022592E-2,-6.463025E-2,2.6368279E-2,7.0679575E-2,2.1211851E-2,-3.0657386E-2,-3.1358225E-3,6.664081E-2],"split_indices":[14,0,0,13,13,6,11,0,7,0,15,0,4,0,7,0,0,1,11,7,7,0,0,15,15,0,6,15,0,5,13,10,7,0,6,13,13,0,0,0,0,7,0,13,13,15,6,0,0,0,0,0,0,0,0,0,0,0,0,0,0,0,0,0,0,0,0,0,0,0,0,0,0,0,0,0,0,0,0],"split_type":[0,0,0,0,0,0,0,0,0,0,0,0,0,0,0,0,0,0,0,0,0,0,0,0,0,0,0,0,0,0,0,0,0,0,0,0,0,0,0,0,0,0,0,0,0,0,0,0,0,0,0,0,0,0,0,0,0,0,0,0,0,0,0,0,0,0,0,0,0,0,0,0,0,0,0,0,0,0,0],"sum_hessian":[3.771905E2,2.3264717E2,1.4454332E2,1.0938517E2,1.23262E2,8.413583E1,6.0407486E1,5.1924126E1,5.7461044E1,9.3163605E1,3.00984E1,2.2141042E0,8.192172E1,2.5193398E1,3.521409E1,2.4956365E0,4.9428486E1,4.8822723E1,8.638321E0,6.8711365E1,2.4452234E1,2.8388973E1,1.7094263E0,3.5203888E1,4.671784E1,1.2270111E0,2.3966387E1,2.8091948E1,7.12214E0,9.218437E0,4.021005E1,1.8654373E1,3.016835E1,5.1242104E0,3.5141103E0,1.5669678E1,5.3041687E1,3.6605809E0,2.0791655E1,1.485893E1,2.0344957E1,8.245654E0,3.8472187E1,1.5597335E1,8.369053E0,2.1357153E1,6.7347946E0,1.6843494E0,7.534088E0,3.531112E1,4.8989315E0,1.52134075E1,3.4409657E0,2.0314718E1,9.853631E0,2.2433283E0,1.270782E0,1.2799252E1,2.8704262E0,5.0467476E1,2.574212E0,3.8626118E0,1.6929043E1,9.377973E0,5.4809575E0,1.434559E0,1.8910398E1,5.0388613E0,3.206793E0,2.79393E1,1.0532885E1,1.3138857E1,2.4584782E0,1.7743646E0,6.594688E0,8.315104E0,1.3042049E1,2.9815683E0,3.753226E0],"tree_param":{"num_deleted":"0","num_feature":"18","num_nodes":"79","size_leaf_vector":"1"}},{"base_weights":[1.1745302E-1,8.7645E-1,-1.1632804E-1,9.388883E-1,-5.377781E-2,-4.0821597E-1,3.7656218E-1,1.0517061E0,4.7545162E-1,7.207947E-1,-5.3703386E-1,8.950178E-1,-1.1763873E-3,8.227412E-1,6.64358E-2,9.456404E-1,-6.728475E-2,9.4620985E-1,-5.2607663E-2,-1.2128901E0,-3.980318E-1,9.760273E-1,-2.2974336E-1,-5.468253E-1,5.234781E-1,1.1806387E0,5.398214E-1,6.477386E-2,5.76086E-1,1.1216004E0,-4.229751E-2,-1.3496428E0,3.6437873E-2,5.8535516E-1,-4.7582033E-1,1.1286311E0,4.0281987E-1,4.64451E-2,-5.568568E-2,-7.3910177E-1,4.920282E-2,-6.896807E-2,6.868202E-1,6.892013E-2,3.0267043E-2,3.410885E-2,-6.055587E-2,-5.487559E-2,5.4099243E-2,3.604556E-2,7.3907726E-2,-7.590361E-2,-7.732764E-3,4.801264E-2,-5.2928645E-2,-1.6509946E-2,-6.381952E-2,6.889779E-2,3.494176E-2,4.954907E-2,-2.8783917E-2,-4.7355544E-2,3.5841577E-2,1.4538112E-2,6.654518E-2],"categories":[],"categories_nodes":[],"categories_segments":[],"categories_sizes":[],"default_left":[0,0,0,0,0,0,0,0,0,0,0,0,0,0,0,0,0,0,0,0,0,0,0,0,0,0,0,0,0,0,0,0,0,0,0,0,0,0,0,0,0,0,0,0,0,0,0,0,0,0,0,0,0,0,0,0,0,0,0,0,0,0,0,0,0],"id":9,"left_children":[1,3,5,7,-1,9,11,13,15,17,19,21,23,25,-1,27,-1,29,-1,31,33,35,37,39,41,43,45,-1,47,49,-1,51,-1,53,55,57,59,-1,-1,61,-1,-1,63,-1,-1,-1,-1,-1,-1,-1,-1,-1,-1,-1,-1,-1,-1,-1,-1,-1,-1,-1,-1,-1,-1],"loss_changes":[6.843138E1,1.2076286E1,4.26365E1,4.128006E0,0E0,2.742956E1,2.161185E1,3.3696136E0,1.7674511E1,8.776563E0,1.5250282E1,4.4622803E0,1.8847433E1,3.529171E0,0E0,1.297864E0,0E0,6.543829E0,0E0,8.439327E0,1.1017889E1,3.3572998E0,5.06417E0,1.0226485E1,1.1379843E1,1.1366501E0,7.0136437E0,0E0,9.22229E0,1.3121471E0,0E0,5.115486E0,0E0,7.635374E0,1.4809877E1,2.6655006E0,6.738513E0,0E0,0E0,9.534632E0,0E0,0E0,7.6686764E0,0E0,0E0,0E0,0E0,0E0,0E0,0E0,0E0,0E0,0E0,0E0,0E0,0E0,0E0,0E0,0E0,0E0,0E0,0E0,0E0,0E0,0E0],"parents":[2147483647,0,0,1,1,2,2,3,3,5,5,6,6,7,7,8,8,9,9,10,10,11,11,12,12,13,13,15,15,17,17,19,19,20,20,21,21,22,22,23,23,24,24,25,25,26,26,28,28,29,29,31,31,33,33,34,34,35,35,36,36,39,39,42,42],"right_children":[2,4,6,8,-1,10,12,14,16,18,20,22,24,26,-1,28,-1,30,-1,32,34,36,38,40,42,44,46,-1,48,50,-1,52,-1,54,56,58,60,-1,-1,62,-1,-1,64,-1,-1,-1,-1,-1,-1,-1,-1,-1,-1,-1,-1,-1,-1,-1,-1,-1,-1,-1,-1,-1,-1],"split_conditions":[2E0,1.3212E4,1E0,4E0,-5.377781E-2,2E0,4.014E3,1.1E1,2.95E3,4E0,2E0,9E0,2E0,2.332E3,6.64358E-2,3E0,-6.728475E-2,1.3142E4,-5.2607663E-2,2.7E1,2E0,4E0,2.028E3,1.9081E4,4.599E3,3E0,9E0,6.477386E-2,5E0,3E0,-4.229751E-2,4E0,3.6437873E-2,1.3E1,1.0322E4,2.436E3,3E0,4.64451E-2,-5.568568E-2,4E0,4.920282E-2,-6.896807E-2,2.2E1,6.892013E-2,3.0267043E-2,3.410885E-2,-6.055587E-2,-5.487559E-2,5.4099243E-2,3.604556E-2,7.3907726E-2,-7.590361E-2,-7.732764E-3,4.801264E-2,-5.2928645E-2,-1.6509946E-2,-6.381952E-2,6.889779E-2,3.494176E-2,4.954907E-2,-2.8783917E-2,-4.7355544E-2,3.5841577E-2,1.4538112E-2,6.654518E-2],"split_indices":[12,8,9,7,0,11,8,15,8,7,15,12,2,8,0,5,0,8,0,3,5,7,8,8,8,7,15,0,15,7,0,5,0,15,8,8,6,0,0,11,0,0,15,0,0,0,0,0,0,0,0,0,0,0,0,0,0,0,0,0,0,0,0,0,0],"split_type":[0,0,0,0,0,0,0,0,0,0,0,0,0,0,0,0,0,0,0,0,0,0,0,0,0,0,0,0,0,0,0,0,0,0,0,0,0,0,0,0,0,0,0,0,0,0,0,0,0,0,0,0,0,0,0,0,0,0,0,0,0,0,0,0,0],"sum_hessian":[3.8408658E2,8.979801E1,2.9428857E2,8.7517624E1,2.2803886E0,1.849397E2,1.0934887E2,6.936278E1,1.815485E1,1.8469578E1,1.6647011E2,4.5512466E1,6.3836407E1,4.0148094E1,2.9214682E1,1.4811515E1,3.3433342E0,1.6799917E1,1.6696589E0,2.7079304E1,1.3939081E2,4.257807E1,2.9343948E0,3.1271399E1,3.2565006E1,1.6324419E1,2.3823675E1,6.3216486E0,8.489866E0,1.5643156E1,1.1567615E0,2.5582403E1,1.4969013E0,9.739615E0,1.296512E2,3.286067E1,9.717404E0,1.247903E0,1.6864918E0,2.8241512E1,3.029887E0,1.9858948E0,3.0579111E1,1.110946E1,5.214959E0,2.2596886E1,1.2267882E0,1.6992003E0,6.790666E0,8.788583E0,6.8545732E0,2.218512E1,3.3972838E0,8.26961E0,1.470005E0,1.108926E2,1.8758596E1,1.940042E1,1.3460248E1,6.0612903E0,3.6561139E0,2.501684E1,3.2246716E0,1.9834171E1,1.0744941E1],"tree_param":{"num_deleted":"0","num_feature":"18","num_nodes":"65","size_leaf_vector":"1"}},{"base_weights":[-2.157701E-6,-3.3418062E-1,5.363304E-1,1.4441499E-1,-8.4407324E-1,9.708852E-1,1.240776E-1,3.6320403E-1,-4.8844084E-1,-9.254283E-1,5.907233E-1,1.1775243E0,4.6067274E-1,7.5326353E-1,-3.930804E-1,9.74971E-1,8.977903E-2,3.744176E-1,-1.118978E0,-1.154853E0,-5.30518E-1,5.339716E-2,-4.689251E-2,3.7593332E-3,1.2215836E0,9.622083E-1,-2.977984E-1,-1.4613302E-1,9.383422E-1,-8.385182E-1,2.0777248E-1,1.10632196E-1,1.1356825E0,-6.930378E-2,2.4186362E-1,1.0071324E0,-5.9240985E-1,3.0579159E-2,-1.3079422E0,-4.953289E-1,-1.3125668E0,-5.3688165E-2,-7.1160346E-2,5.3989638E-2,-5.3760953E-2,6.4629537E-1,1.2686901E0,1.2355163E0,4.8685578E-1,7.275858E-1,-7.401646E-2,-5.965106E-2,6.302997E-1,1.0448507E0,-1.3142696E-1,-1.3114834E0,3.796708E-1,-7.158897E-2,5.2148414E-1,4.750426E-2,-5.4308157E-2,6.365587E-2,2.7374282E-2,1.840929E-2,-6.516663E-2,6.156059E-2,1.202302E-2,-6.5693535E-2,4.7733467E-2,-7.9029866E-2,-5.925535E-3,-5.1238358E-2,3.5303008E-2,-3.087612E-2,-7.7011526E-2,5.097962E-2,-2.2897845E-2,5.5596765E-2,-2.8508492E-3,6.496496E-2,3.1100437E-2,7.1254976E-2,1.8256694E-2,-1.30953295E-2,6.009316E-2,4.941216E-2,7.809142E-3,5.116297E-2,7.488967E-3,6.1864633E-2,1.7144488E-2,-5.2385647E-2,4.2961318E-2,2.243798E-2,-7.85705E-2,-1.7453307E-2,6.406842E-2,4.2593103E-2,-2.4660204E-2],"categories":[],"categories_nodes":[],"categories_segments":[],"categories_sizes":[],"default_left":[0,0,0,0,0,0,0,0,0,0,0,0,0,0,0,0,0,0,0,0,0,0,0,0,0,0,0,0,0,0,0,0,0,0,0,0,0,0,0,0,0,0,0,0,0,0,0,0,0,0,0,0,0,0,0,0,0,0,0,0,0,0,0,0,0,0,0,0,0,0,0,0,0,0,0,0,0,0,0,0,0,0,0,0,0,0,0,0,0,0,0,0,0,0,0,0,0,0,0],"id":10,"left_children":[1,3,5,7,9,11,13,15,17,19,21,23,25,27,29,31,33,35,37,39,41,-1,43,-1,45,47,49,51,53,55,57,59,61,-1,63,65,67,-1,69,71,73,75,-1,-1,-1,77,79,81,83,85,-1,-1,87,89,91,93,95,-1,97,-1,-1,-1,-1,-1,-1,-1,-1,-1,-1,-1,-1,-1,-1,-1,-1,-1,-1,-1,-1,-1,-1,-1,-1,-1,-1,-1,-1,-1,-1,-1,-1,-1,-1,-1,-1,-1,-1,-1,-1],"loss_changes":[6.646204E1,5.5874916E1,2.5381485E1,1.6613323E1,1.3475716E1,6.748581E0,2.443906E1,1.4763231E1,1.7242311E1,8.919434E0,2.0442755E0,2.2674942E0,8.49454E0,5.7661095E0,1.1249617E1,3.6696644E0,1.4354616E1,9.041464E0,6.724329E0,6.183464E0,1.716741E1,0E0,5.5212426E0,0E0,4.4413757E-1,1.1166372E0,1.2417193E1,6.146251E0,3.3481045E0,1.4304241E1,1.0220242E1,6.4486556E0,1.1566677E0,0E0,1.169876E1,1.2010717E0,8.052055E0,0E0,5.2129517E0,9.809494E0,7.3425217E0,1.2375217E1,0E0,0E0,0E0,1.8871298E0,2.470398E-2,7.579317E-1,3.7830346E0,6.9155145E-1,0E0,0E0,6.8978155E-1,3.0528545E0,4.0226545E0,8.705387E0,5.3604984E0,0E0,5.8486996E0,0E0,0E0,0E0,0E0,0E0,0E0,0E0,0E0,0E0,0E0,0E0,0E0,0E0,0E0,0E0,0E0,0E0,0E0,0E0,0E0,0E0,0E0,0E0,0E0,0E0,0E0,0E0,0E0,0E0,0E0,0E0,0E0,0E0,0E0,0E0,0E0,0E0,0E0,0E0,0E0],"parents":[2147483647,0,0,1,1,2,2,3,3,4,4,5,5,6,6,7,7,8,8,9,9,10,10,11,11,12,12,13,13,14,14,15,15,16,16,17,17,18,18,19,19,20,20,22,22,24,24,25,25,26,26,27,27,28,28,29,29,30,30,31,31,32,32,34,34,35,35,36,36,38,38,39,39,40,40,41,41,45,45,46,46,47,47,48,48,49,49,52,52,53,53,54,54,55,55,56,56,58,58],"right_children":[2,4,6,8,10,12,14,16,18,20,22,24,26,28,30,32,34,36,38,40,42,-1,44,-1,46,48,50,52,54,56,58,60,62,-1,64,66,68,-1,70,72,74,76,-1,-1,-1,78,80,82,84,86,-1,-1,88,90,92,94,96,-1,98,-1,-1,-1,-1,-1,-1,-1,-1,-1,-1,-1,-1,-1,-1,-1,-1,-1,-1,-1,-1,-1,-1,-1,-1,-1,-1,-1,-1,-1,-1,-1,-1,-1,-1,-1,-1,-1,-1,-1,-1],"split_conditions":[1E0,3.4E1,4.014E3,4E0,8E0,3.4E1,3E0,2E0,3E0,4.6E1,2.366E3,1E0,3E0,6.701E2,7E0,2.5E1,4.439091E2,3.419E3,1.102E3,2E0,1.2808E3,5.339716E-2,2E0,3.7593332E-3,3.42625E2,2E0,2E0,7E0,4E0,5.5E1,3.2E1,2.2E1,4.538E3,-6.930378E-2,7.457E3,2.566E3,9.756E3,3.0579159E-2,7.587E3,4E0,2E0,4.7E1,-7.1160346E-2,5.3989638E-2,-5.3760953E-2,2E0,4E0,4E1,8.87E2,2.311E3,-7.401646E-2,-5.965106E-2,4.617E3,4E0,3.2763333E3,3E1,1.9081E4,-7.158897E-2,4.1E1,4.750426E-2,-5.4308157E-2,6.365587E-2,2.7374282E-2,1.840929E-2,-6.516663E-2,6.156059E-2,1.202302E-2,-6.5693535E-2,4.7733467E-2,-7.9029866E-2,-5.925535E-3,-5.1238358E-2,3.5303008E-2,-3.087612E-2,-7.7011526E-2,5.097962E-2,-2.2897845E-2,5.5596765E-2,-2.8508492E-3,6.496496E-2,3.1100437E-2,7.1254976E-2,1.8256694E-2,-1.30953295E-2,6.009316E-2,4.941216E-2,7.809142E-3,5.116297E-2,7.488967E-3,6.1864633E-2,1.7144488E-2,-5.2385647E-2,4.2961318E-2,2.243798E-2,-7.85705E-2,-1.7453307E-2,6.406842E-2,4.2593103E-2,-2.4660204E-2],"split_indices":[9,0,8,7,6,0,4,4,5,0,8,1,6,13,6,0,13,8,8,7,13,0,7,0,13,7,1,6,10,0,0,0,8,0,8,8,8,0,8,4,4,0,0,0,0,5,5,0,13,8,0,0,8,7,13,0,8,0,0,0,0,0,0,0,0,0,0,0,0,0,0,0,0,0,0,0,0,0,0,0,0,0,0,0,0,0,0,0,0,0,0,0,0,0,0,0,0,0,0],"split_type":[0,0,0,0,0,0,0,0,0,0,0,0,0,0,0,0,0,0,0,0,0,0,0,0,0,0,0,0,0,0,0,0,0,0,0,0,0,0,0,0,0,0,0,0,0,0,0,0,0,0,0,0,0,0,0,0,0,0,0,0,0,0,0,0,0,0,0,0,0,0,0,0,0,0,0,0,0,0,0,0,0,0,0,0,0,0,0,0,0,0,0,0,0,0,0,0,0,0,0],"sum_hessian":[3.6881824E2,2.2746568E2,1.4135257E2,1.1770353E2,1.0976216E2,6.815522E1,7.319735E1,8.778191E1,2.9921618E1,1.042084E2,5.553758E0,4.7577953E1,2.0577263E1,3.2816055E1,4.038129E1,2.6322227E1,6.1459686E1,1.2804919E1,1.7116697E1,6.4697685E1,3.9510715E1,2.7903988E0,2.763359E0,1.9325726E0,4.5645382E1,1.2224953E1,8.352309E0,5.6363645E0,2.7179693E1,2.2962595E1,1.7418694E1,4.3916183E0,2.193061E1,4.9836507E0,5.6476036E1,7.7146087E0,5.090311E0,1.4648535E0,1.5651844E1,1.3284702E1,5.1412983E1,2.6445168E1,1.3065546E1,1.2947351E0,1.4686241E0,4.5688066E0,4.1076576E1,6.746714E0,5.4782386E0,4.679441E0,3.6728685E0,2.17168E0,3.4646845E0,2.4739836E1,2.4398563E0,1.648548E1,6.4771166E0,2.225189E0,1.5193505E1,2.702312E0,1.6893063E0,1.6833054E1,5.0975566E0,5.291211E1,3.5639238E0,5.5009108E0,2.2136981E0,3.5742471E0,1.5160638E0,1.2465492E1,3.1863515E0,9.323124E0,3.9615784E0,1.3601331E1,3.7811653E1,6.819151E0,1.9626017E1,2.3993068E0,2.1694999E0,3.825662E1,2.819956E0,5.016676E0,1.7300383E0,2.9854982E0,2.4927406E0,2.7125509E0,1.9668902E0,1.2846458E0,2.1800387E0,1.8818214E1,5.921621E0,1.2375811E0,1.2022752E0,2.0276423E0,1.4457836E1,3.9210598E0,2.5560565E0,1.15827E1,3.6108055E0],"tree_param":{"num_deleted":"0","num_feature":"18","num_nodes":"99","size_leaf_vector":"1"}},{"base_weights":[7.824846E-2,6.332982E-1,-1.8477075E-1,6.9396967E-1,-5.8987606E-2,-4.6059632E-1,2.8033802E-1,3.8728833E-1,1.1166635E0,-7.41133E-1,6.567879E-2,8.278227E-1,-9.594968E-2,5.2279496E-1,-5.375624E-1,9.145348E-1,6.643762E-2,-3.313636E-1,-1.3974327E0,-1.889145E-1,9.0109223E-1,9.122148E-1,-2.6145712E-1,4.6475077E-1,-4.890444E-1,6.8007395E-2,3.59426E-1,2.4154572E-1,-6.271347E-2,1.1418353E0,5.9770036E-1,-9.79153E-1,1.18225776E-1,-7.519697E-2,-6.305633E-1,4.1592678E-1,-4.9567083E-1,1.1585168E0,-4.7313847E-2,1.1842865E0,6.405219E-1,4.135244E-2,-5.603954E-2,7.2808903E-1,-2.8719902E-1,-8.548722E-1,-3.7577206E-3,-6.327046E-2,2.3408767E-2,4.547843E-2,-1.3028743E-2,6.1238885E-2,1.3324414E-2,4.4421735E-3,5.0401893E-2,2.8436393E-2,-5.6058664E-2,3.5662558E-2,-1.0267367E-2,-6.4097255E-2,5.8444228E-2,-5.9444387E-2,3.814596E-2,2.7408421E-2,-4.4931583E-2,7.709029E-2,1.9755593E-2,5.827785E-3,6.679236E-2,5.2325714E-2,-3.8202542E-3,8.090346E-4,4.92041E-2,2.5767848E-2,-6.4388536E-2,-5.1039364E-2,3.491901E-2,-3.8252268E-2,1.7895464E-2],"categories":[],"categories_nodes":[],"categories_segments":[],"categories_sizes":[],"default_left":[0,0,0,0,0,0,0,0,0,0,0,0,0,0,0,0,0,0,0,0,0,0,0,0,0,0,0,0,0,0,0,0,0,0,0,0,0,0,0,0,0,0,0,0,0,0,0,0,0,0,0,0,0,0,0,0,0,0,0,0,0,0,0,0,0,0,0,0,0,0,0,0,0,0,0,0,0,0,0],"id":11,"left_children":[1,3,5,7,-1,9,11,13,15,17,19,21,23,25,27,29,-1,31,33,35,37,39,41,43,45,-1,47,49,-1,51,53,55,57,-1,59,61,63,65,-1,67,69,-1,-1,71,73,75,77,-1,-1,-1,-1,-1,-1,-1,-1,-1,-1,-1,-1,-1,-1,-1,-1,-1,-1,-1,-1,-1,-1,-1,-1,-1,-1,-1,-1,-1,-1,-1,-1],"loss_changes":[5.56748E1,1.4302692E1,3.3353485E1,1.5025097E1,0E0,2.4106392E1,2.0069103E1,9.133246E0,9.114113E-1,2.8143581E1,1.2416458E1,3.8814297E0,1.3099825E1,8.008333E0,5.618698E0,1.3777523E0,0E0,1.9569334E1,2.3657455E0,8.547233E0,7.57421E0,1.976614E0,4.319327E0,5.076934E0,6.17848E0,0E0,1.0016541E1,2.0482583E0,0E0,8.0324554E-1,2.8438458E0,6.67717E0,7.9098787E0,0E0,9.31666E0,9.633879E0,1.3230982E1,3.0206757E0,0E0,2.645527E0,6.102648E0,0E0,0E0,3.3536863E0,6.3596497E0,5.828227E0,4.6711373E0,0E0,0E0,0E0,0E0,0E0,0E0,0E0,0E0,0E0,0E0,0E0,0E0,0E0,0E0,0E0,0E0,0E0,0E0,0E0,0E0,0E0,0E0,0E0,0E0,0E0,0E0,0E0,0E0,0E0,0E0,0E0,0E0],"parents":[2147483647,0,0,1,1,2,2,3,3,5,5,6,6,7,7,8,8,9,9,10,10,11,11,12,12,13,13,14,14,15,15,17,17,18,18,19,19,20,20,21,21,22,22,23,23,24,24,26,26,27,27,29,29,30,30,31,31,32,32,34,34,35,35,36,36,37,37,39,39,40,40,43,43,44,44,45,45,46,46],"right_children":[2,4,6,8,-1,10,12,14,16,18,20,22,24,26,28,30,-1,32,34,36,38,40,42,44,46,-1,48,50,-1,52,54,56,58,-1,60,62,64,66,-1,68,70,-1,-1,72,74,76,78,-1,-1,-1,-1,-1,-1,-1,-1,-1,-1,-1,-1,-1,-1,-1,-1,-1,-1,-1,-1,-1,-1,-1,-1,-1,-1,-1,-1,-1,-1,-1,-1],"split_conditions":[3E0,1.3212E4,1E0,1E0,-5.8987606E-2,7E0,4.014E3,5.006E3,1.3E1,5.376E3,9.355E3,4E0,3E0,2E0,2E0,3E0,6.643762E-2,7E0,4E0,3E0,1.1E1,3E0,2E0,4E0,7E0,6.8007395E-2,1E0,2E0,-6.271347E-2,9E0,4E0,2E0,2E0,-7.519697E-2,2E1,5.006E3,5E0,3E0,-4.7313847E-2,3E0,2.398E3,4.135244E-2,-5.603954E-2,5.993E3,6.074E3,1.9847E4,6E0,-6.327046E-2,2.3408767E-2,4.547843E-2,-1.3028743E-2,6.1238885E-2,1.3324414E-2,4.4421735E-3,5.0401893E-2,2.8436393E-2,-5.6058664E-2,3.5662558E-2,-1.0267367E-2,-6.4097255E-2,5.8444228E-2,-5.9444387E-2,3.814596E-2,2.7408421E-2,-4.4931583E-2,7.709029E-2,1.9755593E-2,5.827785E-3,6.679236E-2,5.2325714E-2,-3.8202542E-3,8.090346E-4,4.92041E-2,2.5767848E-2,-6.4388536E-2,-5.1039364E-2,3.491901E-2,-3.8252268E-2,1.7895464E-2],"split_indices":[12,8,9,9,0,6,8,8,3,8,8,5,4,5,4,6,0,3,11,11,3,6,1,7,6,0,1,1,0,3,4,11,7,0,3,8,12,5,0,3,8,0,0,8,8,8,12,0,0,0,0,0,0,0,0,0,0,0,0,0,0,0,0,0,0,0,0,0,0,0,0,0,0,0,0,0,0,0,0],"split_type":[0,0,0,0,0,0,0,0,0,0,0,0,0,0,0,0,0,0,0,0,0,0,0,0,0,0,0,0,0,0,0,0,0,0,0,0,0,0,0,0,0,0,0,0,0,0,0,0,0,0,0,0,0,0,0,0,0,0,0,0,0,0,0,0,0,0,0,0,0,0,0,0,0,0,0,0,0,0,0],"sum_hessian":[3.7956207E2,1.2158124E2,2.5798083E2,1.1824167E2,3.3395715E0,1.6194911E2,9.603172E1,6.963495E1,4.860672E1,1.0537146E2,5.6577656E1,3.8628586E1,5.7403137E1,6.1115234E1,8.519715E0,2.7607643E1,2.0999077E1,6.579585E1,3.9575607E1,4.3955906E1,1.262175E1,3.6001884E1,2.6267004E0,2.3582857E1,3.3820282E1,8.781215E0,5.233402E1,4.399809E0,4.119906E0,1.4558982E1,1.3048662E1,2.6473585E1,3.9322266E1,3.3905502E1,5.670106E0,1.4671585E1,2.928432E1,1.1405338E1,1.2164115E0,1.6310118E1,1.9691769E1,1.1754032E0,1.4512972E0,1.7489603E1,6.0932536E0,1.8849339E1,1.4970942E1,2.6157541E0,4.9718266E1,1.5397998E0,2.8600092E0,1.2934225E1,1.6247568E0,6.3681154E0,6.6805468E0,1.9723502E0,2.4501236E1,1.3426922E1,2.5895344E1,4.3742585E0,1.2958474E0,2.1769743E0,1.2494611E1,8.055864E0,2.1228456E1,6.914216E0,4.4911222E0,2.2472806E0,1.4062838E1,1.2278685E1,7.4130836E0,4.9068933E0,1.2582709E1,3.6502972E0,2.4429564E0,1.7339933E1,1.5094061E0,4.4624395E0,1.0508502E1],"tree_param":{"num_deleted":"0","num_feature":"18","num_nodes":"79","size_leaf_vector":"1"}},{"base_weights":[2.3501019E-4,6.3936126E-1,-3.0573988E-1,3.1551352E-1,1.0758983E0,-5.8203125E-1,1.781235E-1,5.3144175E-1,-4.963856E-1,1.1437026E0,2.2231317E-1,-9.1070694E-1,-1.30604915E-2,6.192794E-1,-3.1654674E-1,6.843345E-2,3.2448858E-1,5.3485014E-2,-8.6007077E-1,6.273038E-2,8.429504E-1,4.662749E-2,-4.7328215E-2,5.9267886E-2,-9.495342E-1,6.13439E-1,-3.9075294E-1,1.084063E0,1.08015135E-1,3.7686375E-1,-7.3798364E-1,8.3800673E-1,-6.4025484E-2,-7.322329E-2,6.459513E-1,1.0180078E0,-9.870961E-3,-4.086122E-1,-1.1061294E0,-5.8060594E-2,9.142652E-1,1.4587183E-1,-1.0090665E0,1.2450513E0,4.075886E-1,-2.150154E-1,7.312347E-2,6.8251693E-1,-5.9683513E-2,-7.945957E-2,-3.2316235E-1,9.0794815E-3,5.664965E-2,-6.763684E-2,1.0447553E-2,4.518411E-2,1.3131394E-2,6.0352195E-2,1.677605E-2,-4.868343E-2,4.2352345E-2,4.7626556E-3,-5.7510924E-2,6.760428E-2,2.320665E-2,-3.3309523E-2,4.8378922E-2,-6.1231088E-2,7.2660833E-3,6.804041E-2,3.1418722E-2,5.921647E-2,-1.9102765E-2,-5.7039667E-2,3.156015E-2,-1.5034832E-2,4.8575338E-2,5.3684305E-2,-3.207165E-2],"categories":[],"categories_nodes":[],"categories_segments":[],"categories_sizes":[],"default_left":[0,0,0,0,0,0,0,0,0,0,0,0,0,0,0,0,0,0,0,0,0,0,0,0,0,0,0,0,0,0,0,0,0,0,0,0,0,0,0,0,0,0,0,0,0,0,0,0,0,0,0,0,0,0,0,0,0,0,0,0,0,0,0,0,0,0,0,0,0,0,0,0,0,0,0,0,0,0,0],"id":12,"left_children":[1,3,5,7,9,11,13,15,17,19,21,23,25,27,29,-1,31,-1,33,-1,35,-1,-1,-1,37,39,41,43,45,47,49,51,53,-1,55,57,-1,59,61,-1,63,65,67,69,71,73,-1,75,-1,-1,77,-1,-1,-1,-1,-1,-1,-1,-1,-1,-1,-1,-1,-1,-1,-1,-1,-1,-1,-1,-1,-1,-1,-1,-1,-1,-1,-1,-1],"loss_changes":[7.279488E1,1.6697716E1,3.375699E1,1.2641125E1,2.6923447E0,2.9997032E1,2.033003E1,9.302576E0,9.662353E0,5.0756454E-1,5.0235157E0,9.402237E0,1.43829565E1,1.1552099E1,1.31813965E1,0E0,9.313707E0,0E0,1.278884E1,0E0,3.0584145E0,0E0,0E0,0E0,8.052849E0,1.3271027E1,1.2722847E1,2.2818127E0,1.1031738E1,9.145011E0,9.303048E0,3.6789494E0,9.904823E0,0E0,1.9934297E-1,1.3486013E0,0E0,1.7943266E1,4.2027817E0,0E0,3.3365746E0,1.4767233E1,4.591404E0,5.8700943E-1,4.3841715E0,1.6897362E1,0E0,4.6004004E0,0E0,0E0,9.55679E0,0E0,0E0,0E0,0E0,0E0,0E0,0E0,0E0,0E0,0E0,0E0,0E0,0E0,0E0,0E0,0E0,0E0,0E0,0E0,0E0,0E0,0E0,0E0,0E0,0E0,0E0,0E0,0E0],"parents":[2147483647,0,0,1,1,2,2,3,3,4,4,5,5,6,6,7,7,8,8,9,9,10,10,11,11,12,12,13,13,14,14,16,16,18,18,20,20,24,24,25,25,26,26,27,27,28,28,29,29,30,30,31,31,32,32,34,34,35,35,37,37,38,38,40,40,41,41,42,42,43,43,44,44,45,45,47,47,50,50],"right_children":[2,4,6,8,10,12,14,16,18,20,22,24,26,28,30,-1,32,-1,34,-1,36,-1,-1,-1,38,40,42,44,46,48,50,52,54,-1,56,58,-1,60,62,-1,64,66,68,70,72,74,-1,76,-1,-1,78,-1,-1,-1,-1,-1,-1,-1,-1,-1,-1,-1,-1,-1,-1,-1,-1,-1,-1,-1,-1,-1,-1,-1,-1,-1,-1,-1,-1],"split_conditions":[3E0,1E0,1E0,4E0,3.4318E3,2E0,6.0744446E2,2E0,5.553333E2,2E0,3E0,1.596842E2,3E0,8E0,3E0,6.843345E-2,2E0,5.3485014E-2,4E0,6.273038E-2,1.6E1,4.662749E-2,-4.7328215E-2,5.9267886E-2,2E0,5.581429E2,3E0,4E0,6.014375E2,1.0798182E3,8.205714E2,9E0,3E0,-7.322329E-2,1E0,1E0,-9.870961E-3,4E0,2.1872728E2,-5.8060594E-2,2E0,9.276667E2,4E0,1.5E1,2E0,1.6E1,7.312347E-2,7.655E2,-5.9683513E-2,-7.945957E-2,8.41E2,9.0794815E-3,5.664965E-2,-6.763684E-2,1.0447553E-2,4.518411E-2,1.3131394E-2,6.0352195E-2,1.677605E-2,-4.868343E-2,4.2352345E-2,4.7626556E-3,-5.7510924E-2,6.760428E-2,2.320665E-2,-3.3309523E-2,4.8378922E-2,-6.1231088E-2,7.2660833E-3,6.804041E-2,3.1418722E-2,5.921647E-2,-1.9102765E-2,-5.7039667E-2,3.156015E-2,-1.5034832E-2,4.8575338E-2,5.3684305E-2,-3.207165E-2],"split_indices":[12,9,9,7,13,2,13,5,13,12,11,13,5,12,11,0,4,0,11,0,3,0,0,0,4,13,4,4,13,13,13,3,4,0,2,17,0,10,13,0,7,13,10,3,7,3,0,13,0,0,13,0,0,0,0,0,0,0,0,0,0,0,0,0,0,0,0,0,0,0,0,0,0,0,0,0,0,0,0],"split_type":[0,0,0,0,0,0,0,0,0,0,0,0,0,0,0,0,0,0,0,0,0,0,0,0,0,0,0,0,0,0,0,0,0,0,0,0,0,0,0,0,0,0,0,0,0,0,0,0,0,0,0,0,0,0,0,0,0,0,0,0,0,0,0,0,0,0,0,0,0,0,0,0,0,0,0,0,0,0,0],"sum_hessian":[3.70245E2,1.1951344E2,2.5073157E2,6.960173E1,4.991171E1,1.594697E2,9.1261856E1,5.5252514E1,1.4349219E1,4.5923878E1,3.9878333E0,1.0069874E2,5.8770966E1,4.810714E1,4.3154716E1,9.838306E0,4.5414207E1,2.3384032E0,1.2010816E1,3.1234377E1,1.46895E1,2.606343E0,1.3814901E0,1.2943622E0,9.940437E1,2.1869925E1,3.690104E1,2.4612175E1,2.3494965E1,1.6353416E1,2.6801302E1,1.9062029E1,2.6352177E1,8.590771E0,3.4200454E0,1.2592176E1,2.0973227E0,2.3126965E1,7.627741E1,2.7553477E0,1.9114578E1,2.0164587E1,1.6736452E1,1.9201965E1,5.4102087E0,1.9649832E1,3.845133E0,1.416256E1,2.1908565E0,7.8539906E0,1.8947311E1,6.411173E0,1.2650856E1,3.9148452E0,2.2437332E1,1.233319E0,2.1867263E0,9.2590065E0,3.3331704E0,1.6104424E1,7.022541E0,2.6591008E0,7.361831E1,8.674036E0,1.0440541E1,1.02369995E1,9.9275875E0,1.4051769E1,2.6846836E0,1.5151235E1,4.050731E0,2.4754157E0,2.9347932E0,9.217555E0,1.0432277E1,3.2079222E0,1.0954638E1,3.0755632E0,1.5871748E1],"tree_param":{"num_deleted":"0","num_feature":"18","num_nodes":"79","size_leaf_vector":"1"}},{"base_weights":[-5.7110146E-2,5.096144E-1,-3.287637E-1,7.5096107E-1,-5.461999E-1,-5.938136E-1,1.2820175E-1,5.325792E-1,1.0644994E0,-1.2209557E0,3.766152E-1,-8.957969E-1,-4.5876433E-3,5.666995E-1,-3.804246E-1,7.25201E-1,-3.0977416E-1,1.257841E0,8.1641704E-1,1.6921496E-2,-7.365533E-2,6.267903E-1,-4.2904597E-2,-5.374677E-1,-1.2206315E0,-3.871105E-1,1.0785445E0,6.851003E-1,-6.0775597E-2,8.208259E-2,-7.945077E-1,9.3068254E-1,1.766559E-1,8.6603516E-1,-8.83954E-1,1.5255607E-2,6.653784E-2,-1.1372875E-2,9.524528E-1,-1.8053456E-1,1.0210679E0,3.7310138E-1,-8.902818E-1,-1.2941742E0,3.7186485E-2,5.0446445E-1,-7.745421E-1,1.3316479E0,-4.537749E-2,4.6862E-1,7.224851E-2,-9.285273E-1,6.380028E-1,-7.202948E-2,-1.315547E-1,6.0851045E-2,2.5678849E-2,2.3685686E-2,-5.6689132E-2,5.5680156E-2,1.9405253E-2,-6.845973E-2,4.9707394E-2,1.7697219E-2,5.2396026E-2,-4.9488597E-2,4.3113045E-2,1.6240742E-2,6.048083E-2,-5.1056948E-2,3.1240568E-2,-8.284307E-3,-6.414359E-2,-6.872887E-2,-3.3378616E-2,3.724778E-2,-4.8786905E-2,-5.256911E-2,4.617546E-2,7.6681666E-2,1.2337551E-2,3.7042122E-2,-3.211253E-2,4.424869E-2,-6.984317E-2,-3.951971E-4,4.04436E-2,-5.9115168E-2,1.0632551E-2],"categories":[],"categories_nodes":[],"categories_segments":[],"categories_sizes":[],"default_left":[0,0,0,0,0,0,0,0,0,0,0,0,0,0,0,0,0,0,0,0,0,0,0,0,0,0,0,0,0,0,0,0,0,0,0,0,0,0,0,0,0,0,0,0,0,0,0,0,0,0,0,0,0,0,0,0,0,0,0,0,0,0,0,0,0,0,0,0,0,0,0,0,0,0,0,0,0,0,0,0,0,0,0,0,0,0,0,0,0],"id":13,"left_children":[1,3,5,7,9,11,13,15,17,19,21,23,25,27,29,31,33,35,37,-1,-1,39,-1,41,43,45,47,49,-1,51,53,55,57,59,61,-1,-1,-1,63,65,67,69,71,73,-1,75,77,79,-1,81,-1,83,85,-1,87,-1,-1,-1,-1,-1,-1,-1,-1,-1,-1,-1,-1,-1,-1,-1,-1,-1,-1,-1,-1,-1,-1,-1,-1,-1,-1,-1,-1,-1,-1,-1,-1,-1,-1],"loss_changes":[5.5553757E1,3.0214342E1,2.9604643E1,5.980423E0,1.4370859E1,2.7483162E1,2.0359818E1,9.694757E0,8.0805206E-1,5.66543E0,3.6886084E0,1.1231476E1,2.2521444E1,1.1152564E1,8.188303E0,5.223646E0,8.572164E0,9.591007E-1,3.0007515E0,0E0,0E0,3.068077E0,0E0,1.6506855E1,8.587517E0,1.4263541E1,8.340593E0,6.9717045E0,0E0,1.2358077E1,9.435924E0,3.5003338E0,6.0885344E0,7.647157E-2,8.892561E0,0E0,0E0,0E0,6.311941E-1,4.079068E0,4.2588997E-1,5.819628E0,1.0194071E1,1.6639633E0,0E0,5.273115E0,1.4316998E1,2.4680042E0,0E0,1.1866937E1,0E0,7.89414E0,1.5628829E0,0E0,4.660909E0,0E0,0E0,0E0,0E0,0E0,0E0,0E0,0E0,0E0,0E0,0E0,0E0,0E0,0E0,0E0,0E0,0E0,0E0,0E0,0E0,0E0,0E0,0E0,0E0,0E0,0E0,0E0,0E0,0E0,0E0,0E0,0E0,0E0,0E0],"parents":[2147483647,0,0,1,1,2,2,3,3,4,4,5,5,6,6,7,7,8,8,9,9,10,10,11,11,12,12,13,13,14,14,15,15,16,16,17,17,18,18,21,21,23,23,24,24,25,25,26,26,27,27,29,29,30,30,31,31,32,32,33,33,34,34,38,38,39,39,40,40,41,41,42,42,43,43,45,45,46,46,47,47,49,49,51,51,52,52,54,54],"right_children":[2,4,6,8,10,12,14,16,18,20,22,24,26,28,30,32,34,36,38,-1,-1,40,-1,42,44,46,48,50,-1,52,54,56,58,60,62,-1,-1,-1,64,66,68,70,72,74,-1,76,78,80,-1,82,-1,84,86,-1,88,-1,-1,-1,-1,-1,-1,-1,-1,-1,-1,-1,-1,-1,-1,-1,-1,-1,-1,-1,-1,-1,-1,-1,-1,-1,-1,-1,-1,-1,-1,-1,-1,-1,-1],"split_conditions":[3E0,4E1,1E0,1E0,1.7E1,7E0,3.6E1,3.3E1,2.523E3,2.398E3,4E0,3E0,9.355E3,1.1E1,3E0,2E0,2E0,3E0,2.696E3,1.6921496E-2,-7.365533E-2,1E0,-4.2904597E-2,2E0,5.8E1,5E0,1.1E1,2.3E1,-6.0775597E-2,9.355E3,6E0,3E0,4E0,1E0,3.9E1,1.5255607E-2,6.653784E-2,-1.1372875E-2,2.7E1,5.2E1,4.3E1,3.1E1,2.756E3,4E0,3.7186485E-2,5.376E3,5E1,1.0685E4,-4.537749E-2,4E0,7.224851E-2,2.083E3,1.0854E4,-7.202948E-2,5E0,6.0851045E-2,2.5678849E-2,2.3685686E-2,-5.6689132E-2,5.5680156E-2,1.9405253E-2,-6.845973E-2,4.9707394E-2,1.7697219E-2,5.2396026E-2,-4.9488597E-2,4.3113045E-2,1.6240742E-2,6.048083E-2,-5.1056948E-2,3.1240568E-2,-8.284307E-3,-6.414359E-2,-6.872887E-2,-3.3378616E-2,3.724778E-2,-4.8786905E-2,-5.256911E-2,4.617546E-2,7.6681666E-2,1.2337551E-2,3.7042122E-2,-3.211253E-2,4.424869E-2,-6.984317E-2,-3.951971E-4,4.04436E-2,-5.9115168E-2,1.0632551E-2],"split_indices":[12,0,14,14,3,6,0,0,8,8,7,6,8,12,7,12,4,3,8,0,0,14,0,4,15,12,3,15,0,8,6,6,7,2,0,0,0,0,0,15,0,0,8,5,0,8,0,8,0,7,0,8,8,0,12,0,0,0,0,0,0,0,0,0,0,0,0,0,0,0,0,0,0,0,0,0,0,0,0,0,0,0,0,0,0,0,0,0,0],"split_type":[0,0,0,0,0,0,0,0,0,0,0,0,0,0,0,0,0,0,0,0,0,0,0,0,0,0,0,0,0,0,0,0,0,0,0,0,0,0,0,0,0,0,0,0,0,0,0,0,0,0,0,0,0,0,0,0,0,0,0,0,0,0,0,0,0,0,0,0,0,0,0,0,0,0,0,0,0,0,0,0,0,0,0,0,0,0,0,0,0],"sum_hessian":[3.5876114E2,1.1596292E2,2.4279822E2,9.4622154E1,2.1340763E1,1.534781E2,8.9320114E1,5.7365345E1,3.725681E1,1.2140581E1,9.200183E0,1.0112856E2,5.2349533E1,4.790554E1,4.1414574E1,4.6802128E1,1.0563218E1,1.8650995E1,1.8605814E1,1.6422415E0,1.049834E1,8.059526E0,1.1406559E0,4.9347404E1,5.1781162E1,3.916166E1,1.3187872E1,4.549845E1,2.4070895E0,1.9942127E1,2.1472446E1,3.354118E1,1.326095E1,3.2990665E0,7.264151E0,1.6945224E0,1.6956472E1,2.0676441E0,1.653817E1,2.822426E0,5.2371006E0,1.3764766E1,3.558264E1,5.0241375E1,1.5397873E0,1.1771193E1,2.7390469E1,1.1989475E1,1.1983967E0,3.66686E1,8.829853E0,6.8390803E0,1.3103047E1,1.028054E1,1.1191906E1,1.8751028E1,1.479015E1,1.1330903E1,1.9300473E0,1.2971092E0,2.0019574E0,5.9880123E0,1.276139E0,2.922684E0,1.3615486E1,1.6178097E0,1.2046164E0,1.6962128E0,3.5408878E0,1.6375341E0,1.2127232E1,1.3003806E1,2.2578835E1,4.3469784E1,6.771588E0,1.0553299E1,1.2178934E0,2.387832E1,3.5121474E0,9.75894E0,2.2305353E0,2.9718966E1,6.9496307E0,1.2210997E0,5.6179805E0,2.9406736E0,1.0162374E1,2.1608021E0,9.031103E0],"tree_param":{"num_deleted":"0","num_feature":"18","num_nodes":"89","size_leaf_vector":"1"}},{"base_weights":[1.2049184E-2,4.92635E-1,-2.4782524E-1,1.0878528E-1,9.9808276E-1,-1.6111413E-1,-9.4051814E-1,-1.7582797E-1,9.516535E-1,1.2092476E0,3.572615E-1,-1.3696606E-3,-5.8955044E-1,4.6159934E-2,-1.2461787E0,-5.8759725E-1,5.532263E-1,6.913054E-1,6.959661E-2,6.751546E-2,6.6364723E-1,-8.250856E-1,9.3131757E-1,4.879597E-1,-2.6189873E-1,-8.299386E-1,-8.1518166E-2,-7.070599E-2,2.566557E-2,7.151686E-1,-8.714234E-1,1.1073182E0,6.369436E-2,1.1388773E0,-1.2198704E-1,1.0576508E0,4.200765E-2,1.3326034E-2,-7.6134436E-2,-5.1922135E-2,6.2137987E-2,-6.1068183E-1,6.239489E-1,-7.620613E-1,-6.841519E-2,-1.2730657E0,-2.1959959E-1,3.1367683E-1,-6.330128E-2,4.253964E-4,4.815992E-2,-5.8080263E-2,1.2848903E-2,6.8035625E-2,1.4358064E-3,-6.130011E-2,3.432123E-2,6.929156E-2,2.5297213E-2,5.42669E-2,-6.411953E-2,6.1001357E-2,1.9459425E-2,-6.084567E-2,5.2929938E-2,-5.446961E-2,4.925619E-2,2.3709683E-2,-6.06399E-2,-2.8292527E-2,3.8488425E-2,-1.4146568E-2,-7.095466E-2,5.038729E-2,-8.10627E-3,-2.9451714E-3,-7.254761E-2,3.1939389E-3,-6.254411E-2,-5.940516E-2,3.671856E-2],"categories":[],"categories_nodes":[],"categories_segments":[],"categories_sizes":[],"default_left":[0,0,0,0,0,0,0,0,0,0,0,0,0,0,0,0,0,0,0,0,0,0,0,0,0,0,0,0,0,0,0,0,0,0,0,0,0,0,0,0,0,0,0,0,0,0,0,0,0,0,0,0,0,0,0,0,0,0,0,0,0,0,0,0,0,0,0,0,0,0,0,0,0,0,0,0,0,0,0,0,0],"id":14,"left_children":[1,3,5,7,9,11,13,15,17,19,21,23,25,-1,27,29,31,33,-1,-1,35,37,39,41,43,45,47,-1,-1,49,51,53,55,57,59,61,63,-1,-1,65,-1,67,69,71,73,75,77,79,-1,-1,-1,-1,-1,-1,-1,-1,-1,-1,-1,-1,-1,-1,-1,-1,-1,-1,-1,-1,-1,-1,-1,-1,-1,-1,-1,-1,-1,-1,-1,-1,-1],"loss_changes":[4.513736E1,2.449919E1,1.3939523E1,1.7729893E1,6.9595413E0,1.4351589E1,1.5900951E1,1.7008451E1,1.1739922E0,2.2336159E0,1.09207115E1,1.9729134E1,6.8876133E0,0E0,7.4248085E0,1.3934506E1,5.5100513E0,5.1251326E0,0E0,0E0,2.4833364E0,4.5324078E0,3.2917233E0,8.414361E0,9.720528E0,1.0146717E1,9.479226E0,0E0,0E0,1.2168367E0,1.0125231E1,2.5818605E0,1.0466579E1,6.9502926E-1,9.46948E0,2.0632935E-1,7.7448807E0,0E0,0E0,4.833517E0,0E0,4.773899E0,8.822649E0,8.434994E0,7.617541E0,4.693428E0,5.173813E0,1.0570059E1,0E0,0E0,0E0,0E0,0E0,0E0,0E0,0E0,0E0,0E0,0E0,0E0,0E0,0E0,0E0,0E0,0E0,0E0,0E0,0E0,0E0,0E0,0E0,0E0,0E0,0E0,0E0,0E0,0E0,0E0,0E0,0E0,0E0],"parents":[2147483647,0,0,1,1,2,2,3,3,4,4,5,5,6,6,7,7,8,8,9,9,10,10,11,11,12,12,14,14,15,15,16,16,17,17,20,20,21,21,22,22,23,23,24,24,25,25,26,26,29,29,30,30,31,31,32,32,33,33,34,34,35,35,36,36,39,39,41,41,42,42,43,43,44,44,45,45,46,46,47,47],"right_children":[2,4,6,8,10,12,14,16,18,20,22,24,26,-1,28,30,32,34,-1,-1,36,38,40,42,44,46,48,-1,-1,50,52,54,56,58,60,62,64,-1,-1,66,-1,68,70,72,74,76,78,80,-1,-1,-1,-1,-1,-1,-1,-1,-1,-1,-1,-1,-1,-1,-1,-1,-1,-1,-1,-1,-1,-1,-1,-1,-1,-1,-1,-1,-1,-1,-1,-1,-1],"split_conditions":[3.055E3,1E0,1.3726E4,2E0,2.476E3,4E0,2E0,1.6E1,4E0,3.4E1,2.707E3,3E0,7.457E3,4.6159934E-2,1.9847E4,2.1E1,1.8E1,3E0,6.959661E-2,6.751546E-2,3E0,4.439091E2,5E0,5.0594736E2,6.506667E2,1E0,1.2808E3,-7.070599E-2,2.566557E-2,1.2808E3,1E0,8.7555554E2,4.878E2,2.8E1,1.42E3,3E0,1.1303334E3,1.3326034E-2,-7.6134436E-2,3.9E1,6.2137987E-2,2E0,2E0,3.7E1,6.816E2,2E0,6.074E3,3E0,-6.330128E-2,4.253964E-4,4.815992E-2,-5.8080263E-2,1.2848903E-2,6.8035625E-2,1.4358064E-3,-6.130011E-2,3.432123E-2,6.929156E-2,2.5297213E-2,5.42669E-2,-6.411953E-2,6.1001357E-2,1.9459425E-2,-6.084567E-2,5.2929938E-2,-5.446961E-2,4.925619E-2,2.3709683E-2,-6.06399E-2,-2.8292527E-2,3.8488425E-2,-1.4146568E-2,-7.095466E-2,5.038729E-2,-8.10627E-3,-2.9451714E-3,-7.254761E-2,3.1939389E-3,-6.254411E-2,-5.940516E-2,3.671856E-2],"split_indices":[8,14,8,2,8,7,5,15,11,0,8,11,8,0,8,0,3,7,0,0,7,13,15,13,13,14,13,0,0,13,16,13,13,0,8,11,13,0,0,0,0,11,3,0,13,5,8,15,0,0,0,0,0,0,0,0,0,0,0,0,0,0,0,0,0,0,0,0,0,0,0,0,0,0,0,0,0,0,0,0,0],"split_type":[0,0,0,0,0,0,0,0,0,0,0,0,0,0,0,0,0,0,0,0,0,0,0,0,0,0,0,0,0,0,0,0,0,0,0,0,0,0,0,0,0,0,0,0,0,0,0,0,0,0,0,0,0,0,0,0,0,0,0,0,0,0,0,0,0,0,0,0,0,0,0,0,0,0,0,0,0,0,0,0,0],"sum_hessian":[3.594337E2,1.2583371E2,2.3359998E2,7.221048E1,5.362323E1,2.0870671E2,2.489326E1,5.4573807E1,1.763667E1,3.9665527E1,1.3957704E1,1.5275464E2,5.595208E1,3.222746E0,2.1670513E1,3.4999912E1,1.9573896E1,1.2698107E1,4.9385624E0,3.0345089E1,9.320439E0,4.4189596E0,9.538744E0,5.2769413E1,9.998522E1,3.755049E1,1.8401587E1,1.9961504E1,1.7090088E0,5.989283E0,2.901063E1,8.589552E0,1.0984344E1,7.932408E0,4.765699E0,5.2754188E0,4.045021E0,1.963863E0,2.4550965E0,2.495043E0,7.043701E0,5.4278364E0,4.734158E1,2.7069878E1,7.2915344E1,2.1126265E1,1.6424227E1,1.4349314E1,4.052273E0,1.8247362E0,4.164547E0,2.3052883E1,5.9577465E0,6.743711E0,1.8458414E0,3.2613065E0,7.723037E0,4.8503776E0,3.0820303E0,2.367332E0,2.398367E0,3.5805438E0,1.6948748E0,1.7190901E0,2.325931E0,1.2220336E0,1.2730095E0,2.0131164E0,3.4147203E0,4.854154E0,4.2487423E1,1.6481575E1,1.05883045E1,5.059426E0,6.785592E1,2.8697739E0,1.825649E1,1.3618767E1,2.8054602E0,2.7408774E0,1.1608437E1],"tree_param":{"num_deleted":"0","num_feature":"18","num_nodes":"81","size_leaf_vector":"1"}},{"base_weights":[1.6857594E-2,6.931334E-1,-1.5829019E-1,-3.1957158E-3,8.2508445E-1,3.5105494E-1,-3.4062225E-1,6.062437E-1,-7.159614E-1,9.690377E-1,1.2494521E-1,-1.1498922E-1,8.212386E-1,-1.1378864E0,-2.048713E-1,1.0052767E0,-1.6878524E-1,-7.163694E-2,5.6966227E-2,5.234942E-1,5.813068E-2,6.00028E-1,-5.9845634E-2,1.8829419E-1,-6.9931015E-2,1.1309288E0,3.2824388E-1,-7.045359E-2,-3.6877647E-1,6.0598546E-1,-3.1119806E-1,6.254822E-2,1.3580714E-2,-4.2488884E-2,3.4685686E-2,5.8597725E-2,2.7191046E-1,-5.8390077E-2,8.987954E-1,1.1775693E0,-6.14988E-2,-1.2076845E-3,1.2352996E0,-6.5630436E-2,9.1240054E-1,5.771541E-1,-6.0958486E-2,-4.513303E-2,1.1823351E0,2.1378579E-2,-6.095868E-1,-2.7539058E-2,3.0537495E-2,-4.5824032E-2,4.6880197E-2,5.9349865E-2,6.5478995E-3,6.945543E-2,1.8165814E-2,3.4306373E-2,-2.6220936E-2,2.0787466E-2,6.499838E-2,5.2142978E-2,1.0559309E-2,2.6170574E-3,5.871507E-2,-6.6014715E-2,4.4272795E-2,6.56164E-2,1.3678798E-2,9.219647E-3,-2.1444172E-2,-1.9578924E-2,-5.2391883E-2],"categories":[],"categories_nodes":[],"categories_segments":[],"categories_sizes":[],"default_left":[0,0,0,0,0,0,0,0,0,0,0,0,0,0,0,0,0,0,0,0,0,0,0,0,0,0,0,0,0,0,0,0,0,0,0,0,0,0,0,0,0,0,0,0,0,0,0,0,0,0,0,0,0,0,0,0,0,0,0,0,0,0,0,0,0,0,0,0,0,0,0,0,0,0,0],"id":15,"left_children":[1,3,5,7,9,11,13,15,17,19,21,23,25,27,29,31,33,-1,-1,35,-1,37,-1,39,-1,41,43,-1,45,47,49,-1,-1,-1,-1,-1,51,53,55,57,59,-1,61,-1,63,65,-1,67,69,71,73,-1,-1,-1,-1,-1,-1,-1,-1,-1,-1,-1,-1,-1,-1,-1,-1,-1,-1,-1,-1,-1,-1,-1,-1],"loss_changes":[4.1774155E1,6.6682205E0,2.6142374E1,5.8869843E0,6.0261726E0,1.6388102E1,2.2154072E1,2.4299388E0,9.936587E0,3.7418785E0,7.9713483E0,1.5142653E1,5.2987137E0,5.711727E0,1.5532665E1,5.557723E-1,2.5514035E0,0E0,0E0,2.4705868E0,0E0,1.8548293E0,0E0,7.929936E0,0E0,2.7303162E0,1.6281872E1,0E0,8.058162E0,7.923289E0,1.5692673E1,0E0,0E0,0E0,0E0,0E0,4.1331463E0,4.1059794E0,1.2527351E0,6.0800266E-1,9.474916E0,0E0,5.4934883E-1,0E0,8.953943E-1,1.507661E0,0E0,1.3996938E1,9.59466E-1,5.6344075E0,7.5498295E0,0E0,0E0,0E0,0E0,0E0,0E0,0E0,0E0,0E0,0E0,0E0,0E0,0E0,0E0,0E0,0E0,0E0,0E0,0E0,0E0,0E0,0E0,0E0,0E0],"parents":[2147483647,0,0,1,1,2,2,3,3,4,4,5,5,6,6,7,7,8,8,9,9,10,10,11,11,12,12,13,13,14,14,15,15,16,16,19,19,21,21,23,23,25,25,26,26,28,28,29,29,30,30,36,36,37,37,38,38,39,39,40,40,42,42,44,44,45,45,47,47,48,48,49,49,50,50],"right_children":[2,4,6,8,10,12,14,16,18,20,22,24,26,28,30,32,34,-1,-1,36,-1,38,-1,40,-1,42,44,-1,46,48,50,-1,-1,-1,-1,-1,52,54,56,58,60,-1,62,-1,64,66,-1,68,70,72,74,-1,-1,-1,-1,-1,-1,-1,-1,-1,-1,-1,-1,-1,-1,-1,-1,-1,-1,-1,-1,-1,-1,-1,-1],"split_conditions":[2.476E3,3.83E2,2E0,2.144E3,3.5E1,9E0,2E0,3E0,5.4E1,6E0,7E0,5E0,3.8E1,7E0,2.7E1,2.028E3,1E0,-7.163694E-2,5.6966227E-2,2E0,5.813068E-2,1E0,-5.9845634E-2,2E0,-6.9931015E-2,2.7E1,4.3E1,-7.045359E-2,3.3E1,1.0415E3,3E0,6.254822E-2,1.3580714E-2,-4.2488884E-2,3.4685686E-2,5.8597725E-2,6.91E2,2E0,3E0,8.7E2,3E0,-1.2076845E-3,3.069091E2,-6.5630436E-2,1.0502E4,4E0,-6.0958486E-2,1E0,4E0,1.0655E3,4E0,-2.7539058E-2,3.0537495E-2,-4.5824032E-2,4.6880197E-2,5.9349865E-2,6.5478995E-3,6.945543E-2,1.8165814E-2,3.4306373E-2,-2.6220936E-2,2.0787466E-2,6.499838E-2,5.2142978E-2,1.0559309E-2,2.6170574E-3,5.871507E-2,-6.6014715E-2,4.4272795E-2,6.56164E-2,1.3678798E-2,9.219647E-3,-2.1444172E-2,-1.9578924E-2,-5.2391883E-2],"split_indices":[8,13,4,8,0,15,15,7,0,15,15,15,0,6,0,8,9,0,0,5,0,9,0,5,0,0,0,0,0,13,7,0,0,0,0,0,13,2,7,13,6,0,13,0,8,5,0,9,5,13,4,0,0,0,0,0,0,0,0,0,0,0,0,0,0,0,0,0,0,0,0,0,0,0,0],"split_type":[0,0,0,0,0,0,0,0,0,0,0,0,0,0,0,0,0,0,0,0,0,0,0,0,0,0,0,0,0,0,0,0,0,0,0,0,0,0,0,0,0,0,0,0,0,0,0,0,0,0,0,0,0,0,0,0,0,0,0,0,0,0,0,0,0,0,0,0,0,0,0,0,0,0,0],"sum_hessian":[3.5075235E2,7.154549E1,2.7920688E2,1.1553162E1,5.999232E1,7.33574E1,2.0584947E2,6.3085666E0,5.244595E0,4.9442543E1,1.0549779E1,3.7220264E1,3.613714E1,2.8876411E1,1.7697307E2,3.9683378E0,2.340229E0,3.9473252E0,1.2972699E0,1.609708E1,3.3345463E1,8.162283E0,2.387496E0,3.0797136E1,6.4231257E0,2.1400036E1,1.47371025E1,2.0733704E1,8.142709E0,1.9971264E1,1.570018E2,2.444599E0,1.5237389E0,1.3159558E0,1.0242732E0,3.476932E0,1.2620148E1,2.7988327E0,5.3634505E0,5.4598556E0,2.5337282E1,1.8371127E0,1.9562923E1,3.541704E0,1.1195398E1,4.00693E0,4.135779E0,9.810151E0,1.0161112E1,7.468647E1,8.231533E1,3.4990559E0,9.121092E0,1.5463879E0,1.2524447E0,3.5028033E0,1.860647E0,3.77352E0,1.6863356E0,9.504738E0,1.5832543E1,1.9740736E0,1.758885E1,9.028458E0,2.1669405E0,2.7115183E0,1.2954117E0,3.9621496E0,5.848001E0,8.501004E0,1.6601079E0,5.526766E1,1.9418812E1,5.623479E1,2.6080542E1],"tree_param":{"num_deleted":"0","num_feature":"18","num_nodes":"75","size_leaf_vector":"1"}},{"base_weights":[6.98494E-2,-2.166297E-1,5.154158E-1,3.337239E-1,-4.3887475E-1,9.012522E-1,1.9182351E-1,5.806489E-1,-6.400979E-1,6.6630965E-1,-5.778126E-1,9.49549E-1,-2.067382E-1,-2.5114292E-1,6.6143185E-1,2.26665E-1,9.90521E-1,1.22030534E-1,-6.6496044E-2,8.919742E-1,-4.7255546E-2,-6.354781E-1,8.4088933E-1,6.757536E-2,8.138145E-1,3.866599E-2,-4.9351007E-2,-6.7345895E-2,-7.443137E-3,5.2784164E-2,6.317221E-2,3.9822066E-1,-6.1063744E-2,1.1081976E0,2.0346825E-1,-4.8382122E-2,6.212261E-1,2.4537936E-1,7.009455E-2,-1.2395883E0,-5.065826E-1,6.295032E-2,1.5968196E-1,4.1187155E-1,1.0133116E0,7.070382E-1,-5.013552E-1,4.4987267E-1,-6.943905E-2,4.2581115E-2,-1.7031685E-3,6.081582E-2,2.390734E-2,4.8901092E-2,-5.2094854E-2,-3.375452E-3,5.4934222E-2,6.350081E-2,-5.8057666E-2,5.557954E-2,-7.144844E-2,-3.811338E-2,-8.526326E-3,5.011896E-2,-4.089087E-2,2.8913543E-2,-5.123044E-2,2.1565087E-2,5.672214E-2,4.6115637E-2,-4.6928257E-2,7.444223E-3,-5.5269517E-2,-6.252863E-2,3.963533E-2],"categories":[],"categories_nodes":[],"categories_segments":[],"categories_sizes":[],"default_left":[0,0,0,0,0,0,0,0,0,0,0,0,0,0,0,0,0,0,0,0,0,0,0,0,0,0,0,0,0,0,0,0,0,0,0,0,0,0,0,0,0,0,0,0,0,0,0,0,0,0,0,0,0,0,0,0,0,0,0,0,0,0,0,0,0,0,0,0,0,0,0,0,0,0,0],"id":16,"left_children":[1,3,5,7,9,11,13,15,17,19,21,23,25,27,29,31,33,35,-1,37,-1,39,41,-1,43,-1,-1,-1,45,47,-1,49,-1,51,53,-1,55,57,-1,59,61,-1,63,65,67,69,71,73,-1,-1,-1,-1,-1,-1,-1,-1,-1,-1,-1,-1,-1,-1,-1,-1,-1,-1,-1,-1,-1,-1,-1,-1,-1,-1,-1],"loss_changes":[4.645691E1,2.7262714E1,1.7604168E1,1.5843077E1,2.4700613E1,3.657219E0,1.6539043E1,7.298382E0,7.2544723E0,7.442621E0,1.2086414E1,2.2911263E0,3.4570928E0,1.0999448E1,1.4033033E1,7.7195272E0,1.9724903E0,4.585681E0,0E0,5.0743904E0,0E0,9.982193E0,1.492465E0,0E0,3.5098724E0,0E0,0E0,0E0,1.26112585E1,1.2175437E1,0E0,5.2794824E0,0E0,8.0944633E-1,5.178007E0,0E0,1.9264369E0,1.3664218E1,0E0,1.1949593E1,9.66457E0,0E0,3.6259637E0,4.878336E0,1.7699394E0,6.041784E0,8.460312E0,1.0654538E1,0E0,0E0,0E0,0E0,0E0,0E0,0E0,0E0,0E0,0E0,0E0,0E0,0E0,0E0,0E0,0E0,0E0,0E0,0E0,0E0,0E0,0E0,0E0,0E0,0E0,0E0,0E0],"parents":[2147483647,0,0,1,1,2,2,3,3,4,4,5,5,6,6,7,7,8,8,9,9,10,10,11,11,12,12,13,13,14,14,15,15,16,16,17,17,19,19,21,21,22,22,24,24,28,28,29,29,31,31,33,33,34,34,36,36,37,37,39,39,40,40,42,42,43,43,44,44,45,45,46,46,47,47],"right_children":[2,4,6,8,10,12,14,16,18,20,22,24,26,28,30,32,34,36,-1,38,-1,40,42,-1,44,-1,-1,-1,46,48,-1,50,-1,52,54,-1,56,58,-1,60,62,-1,64,66,68,70,72,74,-1,-1,-1,-1,-1,-1,-1,-1,-1,-1,-1,-1,-1,-1,-1,-1,-1,-1,-1,-1,-1,-1,-1,-1,-1,-1,-1],"split_conditions":[1E0,3E0,3.748E3,4E0,2E0,9E0,7E0,1.2E1,3E0,4E0,5.2E1,2E0,2.028E3,5.986957E2,1.3E1,4E0,4E0,2E0,-6.6496044E-2,6E0,-4.7255546E-2,4.35E2,7E0,6.757536E-2,6E0,3.866599E-2,-4.9351007E-2,-6.7345895E-2,3E0,7E0,6.317221E-2,3E0,-6.1063744E-2,4.841E3,2.644E3,-4.8382122E-2,4E0,3.8954544E2,7.009455E-2,1.596842E2,8E0,6.295032E-2,2E0,4E0,3.9932352E2,4E0,9.114286E2,4.805E3,-6.943905E-2,4.2581115E-2,-1.7031685E-3,6.081582E-2,2.390734E-2,4.8901092E-2,-5.2094854E-2,-3.375452E-3,5.4934222E-2,6.350081E-2,-5.8057666E-2,5.557954E-2,-7.144844E-2,-3.811338E-2,-8.526326E-3,5.011896E-2,-4.089087E-2,2.8913543E-2,-5.123044E-2,2.1565087E-2,5.672214E-2,4.6115637E-2,-4.6928257E-2,7.444223E-3,-5.5269517E-2,-6.252863E-2,3.963533E-2],"split_indices":[14,12,8,7,11,12,6,15,3,7,15,4,8,13,15,4,10,3,0,6,0,13,12,0,15,0,0,0,4,15,0,6,0,8,8,0,11,13,0,13,12,0,4,10,13,7,13,8,0,0,0,0,0,0,0,0,0,0,0,0,0,0,0,0,0,0,0,0,0,0,0,0,0,0,0],"split_type":[0,0,0,0,0,0,0,0,0,0,0,0,0,0,0,0,0,0,0,0,0,0,0,0,0,0,0,0,0,0,0,0,0,0,0,0,0,0,0,0,0,0,0,0,0,0,0,0,0,0,0,0,0,0,0,0,0,0,0,0,0,0,0,0,0,0,0,0,0,0,0,0,0,0,0],"sum_hessian":[3.6207797E2,2.2069492E2,1.4138307E2,6.334062E1,1.573543E2,6.367491E1,7.770816E1,5.085055E1,1.2490067E1,1.7148712E1,1.4020558E2,6.115231E1,2.5226028E0,4.0227787E1,3.748037E1,2.811886E1,2.2731691E1,6.325093E0,6.1649737E0,1.5433816E1,1.7148964E0,1.352598E2,4.9457874E0,1.3176123E1,4.7976185E1,1.1221148E0,1.400488E0,6.4952965E0,3.373249E1,1.9178331E1,1.8302038E1,2.5788363E1,2.3304973E0,1.942006E1,3.3116314E0,1.6924063E0,4.632686E0,7.457995E0,7.9758215E0,2.2269522E1,1.1299027E2,2.539112E0,2.4066753E0,1.6930164E1,3.1046022E1,1.361126E1,2.0121231E1,1.5575803E1,3.6025283E0,1.211328E1,1.3675082E1,1.5781411E1,3.6386483E0,2.1741142E0,1.1375173E0,2.248224E0,2.3844624E0,4.370913E0,3.087082E0,1.2970386E0,2.0972483E1,6.344812E1,4.9542156E1,1.278787E0,1.1278883E0,1.57080145E1,1.2221493E0,6.13401E0,2.4912012E1,1.2425332E1,1.1859276E0,1.0052887E1,1.0068344E1,2.169148E0,1.3406654E1],"tree_param":{"num_deleted":"0","num_feature":"18","num_nodes":"75","size_leaf_vector":"1"}},{"base_weights":[3.3367142E-2,-2.6062664E-1,4.6899426E-1,3.0530121E-2,-5.199046E-1,7.9899263E-1,-1.5727561E-2,2.4344195E-1,-6.501109E-1,-3.0226147E-1,-1.1322861E0,1.0736202E0,5.7574755E-1,-6.336715E-2,1.1559488E-1,1.4815259E-1,6.642998E-2,2.0371275E-1,-1.1935412E0,-5.6151825E-1,3.0700672E-1,-1.2372936E0,2.093804E-2,1.1245794E0,3.354213E-1,-6.0298306E-1,6.810583E-1,3.3643046E-1,-5.7095987E-1,-6.735475E-2,8.231875E-1,-7.066872E-1,5.9611607E-2,-7.003297E-2,2.5718973E-3,2.6091933E-1,-7.863686E-1,-5.8692165E-2,5.5071896E-1,-6.564245E-1,-6.79481E-2,1.0004291E-2,5.8072772E-2,-7.984552E-3,3.973043E-2,4.077108E-2,-6.657792E-2,5.164008E-1,1.2080343E0,-6.579736E-2,5.451268E-1,4.6085203E-1,-6.864475E-2,-3.395089E-2,1.3175611E-2,5.943602E-2,7.2541903E-3,3.780574E-2,-5.9604764E-2,-5.678875E-2,4.23865E-2,-6.8101235E-2,-1.54078E-2,5.2284845E-3,6.267141E-2,-5.8820844E-2,2.2563284E-2,4.9241044E-2,1.014958E-2,2.9854704E-2,6.706486E-2,-5.3390063E-2,3.3397254E-2,5.3134587E-2,-4.6663944E-2],"categories":[],"categories_nodes":[],"categories_segments":[],"categories_sizes":[],"default_left":[0,0,0,0,0,0,0,0,0,0,0,0,0,0,0,0,0,0,0,0,0,0,0,0,0,0,0,0,0,0,0,0,0,0,0,0,0,0,0,0,0,0,0,0,0,0,0,0,0,0,0,0,0,0,0,0,0,0,0,0,0,0,0,0,0,0,0,0,0,0,0,0,0,0,0],"id":17,"left_children":[1,3,5,7,9,11,13,15,17,19,21,23,25,-1,27,29,-1,31,33,35,37,39,-1,41,43,45,47,49,51,53,55,57,-1,-1,-1,59,61,-1,63,65,-1,-1,-1,-1,-1,-1,-1,67,69,-1,71,73,-1,-1,-1,-1,-1,-1,-1,-1,-1,-1,-1,-1,-1,-1,-1,-1,-1,-1,-1,-1,-1,-1,-1],"loss_changes":[4.5395195E1,1.5997339E1,2.2853764E1,1.4746276E1,1.4590078E1,4.591694E0,9.814345E0,7.8073025E0,1.1498899E1,1.3444462E1,5.2435646E0,1.0126534E0,6.4968376E0,0E0,8.402124E0,1.0570887E1,0E0,1.01020775E1,3.9320374E0,1.1170456E1,9.931619E0,1.0462685E0,0E0,9.3136215E-1,9.932841E-1,5.789425E0,3.3223133E0,1.50631695E1,1.18442335E1,1.14545965E1,4.182083E0,5.1503167E0,0E0,0E0,0E0,1.2012211E1,1.2467569E1,0E0,7.008428E0,4.3809137E0,0E0,0E0,0E0,0E0,0E0,0E0,0E0,5.1435165E0,1.9813538E-2,0E0,8.170164E0,6.591716E0,0E0,0E0,0E0,0E0,0E0,0E0,0E0,0E0,0E0,0E0,0E0,0E0,0E0,0E0,0E0,0E0,0E0,0E0,0E0,0E0,0E0,0E0,0E0],"parents":[2147483647,0,0,1,1,2,2,3,3,4,4,5,5,6,6,7,7,8,8,9,9,10,10,11,11,12,12,14,14,15,15,17,17,18,18,19,19,20,20,21,21,23,23,24,24,25,25,26,26,27,27,28,28,29,29,30,30,31,31,35,35,36,36,38,38,39,39,47,47,48,48,50,50,51,51],"right_children":[2,4,6,8,10,12,14,16,18,20,22,24,26,-1,28,30,-1,32,34,36,38,40,-1,42,44,46,48,50,52,54,56,58,-1,-1,-1,60,62,-1,64,66,-1,-1,-1,-1,-1,-1,-1,68,70,-1,72,74,-1,-1,-1,-1,-1,-1,-1,-1,-1,-1,-1,-1,-1,-1,-1,-1,-1,-1,-1,-1,-1,-1,-1],"split_conditions":[1E0,3.4E1,3.6E1,4E0,1.051E3,3E0,2E0,4.8E1,3E0,4.6E1,5.2E1,2.4E1,2E0,-6.336715E-2,4E0,1.262E3,6.642998E-2,1E1,8E0,2E0,2E0,3.7E1,2.093804E-2,2.707E2,2E0,2E0,2.4E1,3.9E1,3E0,2.9E1,3E0,2E1,5.9611607E-2,-7.003297E-2,2.5718973E-3,9E0,6.25E2,-5.8692165E-2,7E0,2.0191111E3,-6.79481E-2,1.0004291E-2,5.8072772E-2,-7.984552E-3,3.973043E-2,4.077108E-2,-6.657792E-2,2.6E1,5.1825E2,-6.579736E-2,3.6557144E2,1.197E3,-6.864475E-2,-3.395089E-2,1.3175611E-2,5.943602E-2,7.2541903E-3,3.780574E-2,-5.9604764E-2,-5.678875E-2,4.23865E-2,-6.8101235E-2,-1.54078E-2,5.2284845E-3,6.267141E-2,-5.8820844E-2,2.2563284E-2,4.9241044E-2,1.014958E-2,2.9854704E-2,6.706486E-2,-5.3390063E-2,3.3397254E-2,5.3134587E-2,-4.6663944E-2],"split_indices":[9,0,0,7,13,4,6,15,5,0,15,3,15,0,7,13,0,15,6,7,7,0,0,13,2,5,15,0,5,0,6,0,0,0,0,3,13,0,6,13,0,0,0,0,0,0,0,0,13,0,13,13,0,0,0,0,0,0,0,0,0,0,0,0,0,0,0,0,0,0,0,0,0,0,0],"split_type":[0,0,0,0,0,0,0,0,0,0,0,0,0,0,0,0,0,0,0,0,0,0,0,0,0,0,0,0,0,0,0,0,0,0,0,0,0,0,0,0,0,0,0,0,0,0,0,0,0,0,0,0,0,0,0,0,0,0,0,0,0,0,0,0,0,0,0,0,0,0,0,0,0,0,0],"sum_hessian":[3.524971E2,2.107016E2,1.4179549E2,9.966492E1,1.1103668E2,8.397619E1,5.78193E1,7.640649E1,2.3258436E1,8.302338E1,2.8013302E1,3.5946735E1,4.8029453E1,4.66901E0,5.315029E1,7.128349E1,5.1229877E0,9.288975E0,1.3969461E1,5.8295677E1,2.4727701E1,2.6426487E1,1.586816E0,3.3135895E1,2.810842E0,3.5515556E0,4.4477898E1,4.060073E1,1.2549562E1,5.4715572E1,1.6567924E1,4.9839735E0,4.3050013E0,1.1869734E1,2.0997276E0,1.2481511E1,4.5814167E1,2.955134E0,2.1772566E1,5.684202E0,2.0742285E1,1.5175036E0,3.161839E1,1.6663522E0,1.14449E0,1.1647661E0,2.3867896E0,3.5397594E1,9.080302E0,3.9579153E0,3.6642815E1,5.6741834E0,6.875379E0,1.8838047E1,3.5877525E1,1.0275756E1,6.292169E0,1.1028348E0,3.8811386E0,3.4158318E0,9.065679E0,1.9950401E1,2.5863768E1,1.4020057E1,7.75251E0,3.8260581E0,1.8581442E0,1.3330943E1,2.206665E1,2.6073856E0,6.4729166E0,2.0483546E0,3.459446E1,4.1293163E0,1.5448672E0],"tree_param":{"num_deleted":"0","num_feature":"18","num_nodes":"75","size_leaf_vector":"1"}},{"base_weights":[5.569926E-2,5.865908E-1,-2.0815541E-1,7.996521E-1,-3.8943633E-1,-2.616254E-1,9.049013E-1,8.919257E-1,4.3676963E-1,-1.048253E0,2.6849887E-1,3.817304E-1,-3.6369708E-1,6.609013E-2,1.5379897E-1,1.0416855E0,5.657052E-1,-3.2635156E-2,7.854498E-1,-6.648861E-2,3.9703548E-2,5.792762E-1,-5.788992E-2,-2.413868E-1,8.388944E-1,-9.5019686E-1,-2.4183929E-1,-4.755229E-2,4.00442E-2,3.4309545E-1,1.133071E0,9.69856E-1,2.1890292E-1,-8.819876E-1,6.214071E-2,9.786768E-1,2.7447725E-2,7.8618336E-1,-3.5004906E-2,7.7781224E-1,-6.514826E-2,2.7368954E-1,1.1006289E0,-1.244478E0,-3.0006322E-1,6.8140304E-1,-3.2767567E-1,-1.1042565E-2,5.5109054E-2,5.8914986E-2,7.6266675E-4,6.1699856E-2,2.2110064E-2,-6.490363E-2,2.6282435E-2,-6.273946E-2,2.072223E-2,1.6506013E-2,6.117202E-2,-4.6078514E-2,4.9922533E-2,-6.0259853E-3,5.521756E-2,1.2037257E-3,5.842301E-2,3.8528327E-2,-2.394649E-2,6.1204653E-2,1.2707024E-2,-6.953256E-2,-2.9420631E-3,2.9008461E-2,-5.9248388E-2,4.319791E-2,-4.1014608E-2,-2.7284086E-2,-2.1000754E-3],"categories":[],"categories_nodes":[],"categories_segments":[],"categories_sizes":[],"default_left":[0,0,0,0,0,0,0,0,0,0,0,0,0,0,0,0,0,0,0,0,0,0,0,0,0,0,0,0,0,0,0,0,0,0,0,0,0,0,0,0,0,0,0,0,0,0,0,0,0,0,0,0,0,0,0,0,0,0,0,0,0,0,0,0,0,0,0,0,0,0,0,0,0,0,0,0,0],"id":18,"left_children":[1,3,5,7,9,11,13,15,17,19,21,23,25,-1,27,29,31,33,35,-1,-1,37,-1,39,41,43,45,-1,-1,47,49,51,53,55,-1,57,59,61,-1,63,-1,65,67,69,71,73,75,-1,-1,-1,-1,-1,-1,-1,-1,-1,-1,-1,-1,-1,-1,-1,-1,-1,-1,-1,-1,-1,-1,-1,-1,-1,-1,-1,-1,-1,-1],"loss_changes":[5.1430885E1,2.5654419E1,1.48428335E1,2.9709167E0,1.0038153E1,1.5567272E1,3.3894644E0,3.2728806E0,3.6764178E0,6.9949064E0,6.0155673E0,9.505953E0,1.4298944E1,0E0,4.498583E0,2.9943428E0,3.5806704E0,1.2435154E1,1.8535385E0,0E0,0E0,3.347698E0,0E0,1.6807358E1,2.5185995E0,6.2519703E0,1.3668148E1,0E0,0E0,3.481684E0,2.3293037E0,1.1555405E0,8.060373E0,3.839395E0,0E0,1.2155609E0,4.271432E0,2.8930979E0,0E0,2.3491073E0,0E0,3.1229239E0,1.0159225E0,3.9945908E0,1.0118933E1,4.7540426E0,9.68631E0,0E0,0E0,0E0,0E0,0E0,0E0,0E0,0E0,0E0,0E0,0E0,0E0,0E0,0E0,0E0,0E0,0E0,0E0,0E0,0E0,0E0,0E0,0E0,0E0,0E0,0E0,0E0,0E0,0E0,0E0],"parents":[2147483647,0,0,1,1,2,2,3,3,4,4,5,5,6,6,7,7,8,8,9,9,10,10,11,11,12,12,14,14,15,15,16,16,17,17,18,18,21,21,23,23,24,24,25,25,26,26,29,29,30,30,31,31,32,32,33,33,35,35,36,36,37,37,39,39,41,41,42,42,43,43,44,44,45,45,46,46],"right_children":[2,4,6,8,10,12,14,16,18,20,22,24,26,-1,28,30,32,34,36,-1,-1,38,-1,40,42,44,46,-1,-1,48,50,52,54,56,-1,58,60,62,-1,64,-1,66,68,70,72,74,76,-1,-1,-1,-1,-1,-1,-1,-1,-1,-1,-1,-1,-1,-1,-1,-1,-1,-1,-1,-1,-1,-1,-1,-1,-1,-1,-1,-1,-1,-1],"split_conditions":[3E0,4E1,5E1,3.3E1,1E0,2.44E3,3.6E1,2E0,9E0,5.2E1,1E0,1E0,2E0,6.609013E-2,7.625E2,2E0,3E0,3.9E1,3.7E1,-6.648861E-2,3.9703548E-2,1.3212E4,-5.788992E-2,3E0,3E0,9.679E3,2E0,-4.755229E-2,4.00442E-2,1.7099E3,4.1055E3,3E0,3E0,1E0,6.214071E-2,2.67E3,2.4E1,4.3E1,-3.5004906E-2,2.235E3,-6.514826E-2,3E0,3.5E1,4E0,1.1935E4,1.0725E3,6.712E3,-1.1042565E-2,5.5109054E-2,5.8914986E-2,7.6266675E-4,6.1699856E-2,2.2110064E-2,-6.490363E-2,2.6282435E-2,-6.273946E-2,2.072223E-2,1.6506013E-2,6.117202E-2,-4.6078514E-2,4.9922533E-2,-6.0259853E-3,5.521756E-2,1.2037257E-3,5.842301E-2,3.8528327E-2,-2.394649E-2,6.1204653E-2,1.2707024E-2,-6.953256E-2,-2.9420631E-3,2.9008461E-2,-5.9248388E-2,4.319791E-2,-4.1014608E-2,-2.7284086E-2,-2.1000754E-3],"split_indices":[12,0,15,0,9,8,0,12,15,15,17,9,15,0,13,15,11,0,0,0,0,8,0,11,11,8,5,0,0,13,13,3,3,17,0,8,3,0,0,8,0,7,0,5,8,13,8,0,0,0,0,0,0,0,0,0,0,0,0,0,0,0,0,0,0,0,0,0,0,0,0,0,0,0,0,0,0],"split_type":[0,0,0,0,0,0,0,0,0,0,0,0,0,0,0,0,0,0,0,0,0,0,0,0,0,0,0,0,0,0,0,0,0,0,0,0,0,0,0,0,0,0,0,0,0,0,0,0,0,0,0,0,0,0,0,0,0,0,0,0,0,0,0,0,0,0,0,0,0,0,0,0,0,0,0,0,0],"sum_hessian":[3.6528665E2,1.20868576E2,2.4441806E2,9.9359634E1,2.1508942E1,2.3394458E2,1.0473484E1,7.805416E1,2.1305477E1,1.0450847E1,1.1058095E1,3.165896E1,2.0228561E2,6.24652E0,4.226964E0,5.19925E1,2.6061659E1,9.467039E0,1.1838438E1,9.306901E0,1.1439453E0,9.567322E0,1.4907732E0,1.3597492E1,1.8061468E1,3.362954E1,1.6865608E2,1.387752E0,2.839212E0,6.56456E0,4.542794E1,1.120601E1,1.4855649E1,5.867931E0,3.5991077E0,9.201659E0,2.6367786E0,8.567272E0,1.0000503E0,7.073591E0,6.5239005E0,6.3641086E0,1.169736E1,2.2521198E1,1.1108343E1,1.3756372E1,1.548997E2,4.173214E0,2.3913457E0,4.3609333E1,1.8186089E0,6.575638E0,4.630372E0,1.9551132E0,1.2900537E1,4.582352E0,1.2855787E0,3.1647284E0,6.036931E0,1.3592312E0,1.2775475E0,2.3867643E0,6.1805077E0,2.7770412E0,4.2965503E0,3.818982E0,2.5451267E0,9.819114E0,1.8782465E0,1.9895443E1,2.625755E0,5.741514E0,5.366829E0,1.2643972E1,1.1123999E0,8.733883E1,6.7560875E1],"tree_param":{"num_deleted":"0","num_feature":"18","num_nodes":"77","size_leaf_vector":"1"}},{"base_weights":[4.3279167E-2,3.6017844E-1,-2.6752844E-1,9.355859E-1,1.217215E-1,6.3963556E-1,-3.649727E-1,3.2224348E-1,1.0199171E0,-1.2767506E-1,5.660779E-1,7.851037E-1,-4.0036153E-2,-5.9723395E-1,4.5325726E-2,-3.885539E-1,4.5491803E-2,1.0600519E0,3.2435068E-1,-2.1832831E-1,6.740315E-2,-5.411466E-2,6.462154E-1,1.1331388E0,4.67815E-2,-1.5076408E-1,-9.453325E-1,-6.3078594E-1,4.2696035E-1,-5.8412362E-2,4.1953515E-2,1.1830251E0,7.659036E-1,-6.762042E-3,3.8227644E-2,6.716398E-1,-3.36624E-1,7.7174884E-1,-5.160333E-1,9.3953265E-3,6.536918E-2,-4.9446743E-2,7.857796E-1,-4.1049773E-1,5.9721446E-1,-7.00826E-2,-7.2161955E-1,-1.1819736E0,6.8999845E-1,5.0847524E-1,-4.580109E-2,6.0504656E-2,1.7425546E-2,4.488855E-3,5.1944163E-2,4.840057E-2,-3.976808E-2,1.6912807E-3,-3.327386E-2,-9.380476E-3,4.201136E-2,4.574121E-2,-6.349931E-2,1.607814E-2,5.1978894E-2,8.311268E-3,-3.323888E-2,3.975371E-2,-3.8097855E-2,5.5927956E-3,-4.4429306E-2,-7.023203E-2,2.4202375E-2,-3.601348E-2,5.2464366E-2,1.0502849E-2,4.8374202E-2],"categories":[],"categories_nodes":[],"categories_segments":[],"categories_sizes":[],"default_left":[0,0,0,0,0,0,0,0,0,0,0,0,0,0,0,0,0,0,0,0,0,0,0,0,0,0,0,0,0,0,0,0,0,0,0,0,0,0,0,0,0,0,0,0,0,0,0,0,0,0,0,0,0,0,0,0,0,0,0,0,0,0,0,0,0,0,0,0,0,0,0,0,0,0,0,0,0],"id":19,"left_children":[1,3,5,7,9,11,13,15,17,19,21,23,-1,25,27,29,-1,31,33,35,-1,-1,37,39,41,43,45,47,49,-1,-1,51,53,-1,-1,55,57,59,61,-1,-1,-1,63,65,67,-1,69,71,73,75,-1,-1,-1,-1,-1,-1,-1,-1,-1,-1,-1,-1,-1,-1,-1,-1,-1,-1,-1,-1,-1,-1,-1,-1,-1,-1,-1],"loss_changes":[3.445333E1,2.3643175E1,1.5851301E1,2.2875595E0,1.376569E1,4.295455E0,1.5291292E1,3.5176206E0,8.846245E-1,1.0991365E1,6.59138E0,4.1611824E0,0E0,1.5764107E1,1.5448351E1,4.9325924E0,0E0,5.8288956E-1,8.805776E-1,8.247613E0,0E0,0E0,6.6956253E0,1.5830078E0,5.5968614E0,9.187375E0,4.8400726E0,1.6561089E1,4.6475015E0,0E0,0E0,1.9248962E-1,2.6700287E0,0E0,0E0,4.8017244E0,8.296699E0,2.7430859E0,6.3473067E0,0E0,0E0,0E0,1.6433907E-1,5.2076683E0,3.905806E0,0E0,5.738907E0,6.477667E0,4.302493E0,4.817769E0,0E0,0E0,0E0,0E0,0E0,0E0,0E0,0E0,0E0,0E0,0E0,0E0,0E0,0E0,0E0,0E0,0E0,0E0,0E0,0E0,0E0,0E0,0E0,0E0,0E0,0E0,0E0],"parents":[2147483647,0,0,1,1,2,2,3,3,4,4,5,5,6,6,7,7,8,8,9,9,10,10,11,11,13,13,14,14,15,15,17,17,18,18,19,19,22,22,23,23,24,24,25,25,26,26,27,27,28,28,31,31,32,32,35,35,36,36,37,37,38,38,42,42,43,43,44,44,46,46,47,47,48,48,49,49],"right_children":[2,4,6,8,10,12,14,16,18,20,22,24,-1,26,28,30,-1,32,34,36,-1,-1,38,40,42,44,46,48,50,-1,-1,52,54,-1,-1,56,58,60,62,-1,-1,-1,64,66,68,-1,70,72,74,76,-1,-1,-1,-1,-1,-1,-1,-1,-1,-1,-1,-1,-1,-1,-1,-1,-1,-1,-1,-1,-1,-1,-1,-1,-1,-1,-1],"split_conditions":[3.4E1,2E0,2E0,2E0,1E0,1.5E1,2E0,1E0,4E0,5.2E1,1E0,4.2E1,-4.0036153E-2,3E0,5E0,8E0,4.5491803E-2,2.9E1,3E1,2E0,6.740315E-2,-5.411466E-2,9E0,4E0,7E0,2.1E1,3.9E1,4.9E1,5.6E1,-5.8412362E-2,4.1953515E-2,2.5E1,3.1E1,-6.762042E-3,3.8227644E-2,4E0,5E0,2E0,2E0,9.3953265E-3,6.536918E-2,-4.9446743E-2,5.3E1,3E0,1.1E1,-7.00826E-2,2E0,2.4E1,2E0,4.6E1,-4.580109E-2,6.0504656E-2,1.7425546E-2,4.488855E-3,5.1944163E-2,4.840057E-2,-3.976808E-2,1.6912807E-3,-3.327386E-2,-9.380476E-3,4.201136E-2,4.574121E-2,-6.349931E-2,1.607814E-2,5.1978894E-2,8.311268E-3,-3.323888E-2,3.975371E-2,-3.8097855E-2,5.5927956E-3,-4.4429306E-2,-7.023203E-2,2.4202375E-2,-3.601348E-2,5.2464366E-2,1.0502849E-2,4.8374202E-2],"split_indices":[0,12,11,15,9,3,2,16,5,15,1,0,0,7,15,3,0,0,0,11,0,0,12,12,3,3,0,0,0,0,0,3,0,0,0,7,12,7,5,0,0,0,0,11,12,0,12,3,15,0,0,0,0,0,0,0,0,0,0,0,0,0,0,0,0,0,0,0,0,0,0,0,0,0,0,0,0],"split_type":[0,0,0,0,0,0,0,0,0,0,0,0,0,0,0,0,0,0,0,0,0,0,0,0,0,0,0,0,0,0,0,0,0,0,0,0,0,0,0,0,0,0,0,0,0,0,0,0,0,0,0,0,0,0,0,0,0,0,0,0,0,0,0,0,0,0,0,0,0,0,0,0,0,0,0,0,0],"sum_hessian":[3.4782053E2,1.7214388E2,1.7567665E2,4.958046E1,1.22563416E2,1.6500454E1,1.591762E2,6.5757933E0,4.300467E1,7.8959694E1,4.3603725E1,1.540006E1,1.1003948E0,1.01349045E2,5.7827152E1,3.129203E0,3.44659E0,4.0163204E1,2.841464E0,7.5192726E1,3.7669663E0,1.4417843E0,4.216194E1,1.0102929E1,5.297131E0,4.502862E1,5.6320427E1,2.0628473E1,3.7198677E1,1.9433211E0,1.1858821E0,2.6191563E1,1.3971641E1,1.7290409E0,1.1124232E0,8.273262E0,6.6919464E1,3.8355213E1,3.806727E0,1.8960057E0,8.206923E0,2.064914E0,3.2322168E0,3.3757576E1,1.1271042E1,1.6795778E1,3.9524647E1,1.4628732E1,5.999741E0,3.565586E1,1.5428187E0,2.493279E1,1.2587714E0,4.4006987E0,9.570942E0,7.1657424E0,1.1075194E0,3.1891346E1,3.502812E1,2.439466E0,3.591575E1,1.2400258E0,2.5667012E0,1.9438199E0,1.2883971E0,1.0435494E1,2.3322083E1,1.0201065E1,1.069977E0,6.651466E0,3.287318E1,1.304247E1,1.5862613E0,1.0141857E0,4.9855556E0,2.2491167E1,1.3164693E1],"tree_param":{"num_deleted":"0","num_feature":"18","num_nodes":"77","size_leaf_vector":"1"}},{"base_weights":[3.939063E-2,-2.6987445E-1,5.0310695E-1,2.8633755E-1,-5.116505E-1,9.0122044E-1,1.0395047E-1,7.538637E-1,-6.072562E-2,7.6417667E-1,-6.2943524E-1,9.610044E-1,-5.2119948E-2,7.003007E-1,-4.1633698E-1,-4.494551E-2,8.959354E-1,-6.5293655E-2,1.0458102E-1,-4.6671633E-2,1.1046267E0,-1.4159976E-1,-8.8426113E-1,2.700783E-3,9.8612636E-1,6.705102E-2,1.09023E0,-6.829814E-1,6.447105E-1,-1.2888563E-1,1.0789654E0,3.0711937E-1,-6.434122E-1,6.380942E-2,4.82113E-1,3.031413E-1,-7.2265774E-1,-1.3145466E0,-5.212054E-1,6.992154E-1,1.1185285E0,-3.2884178E-1,6.1339706E-2,7.0803624E-1,6.468932E-2,-1.0288086E0,6.16112E-1,5.8868308E-2,-2.0329626E-1,6.254663E-2,-5.3090204E-2,1.0556427E-2,6.1671764E-2,-1.1539981E-2,4.9912505E-2,-5.860197E-2,4.9896266E-2,3.9056882E-2,3.5780703E-3,-5.2954115E-2,2.6997874E-2,7.7410187E-3,-6.61379E-2,-7.115223E-2,3.7807707E-2,8.2059674E-2,-3.4490827E-2,5.9016254E-2,8.861299E-3,5.759108E-2,5.5679684E-3,1.0468154E-2,-6.228844E-2,-3.3021874E-3,4.9908713E-2,-6.5400794E-2,1.0756703E-2,5.4021556E-2,-3.962658E-2,-5.0915875E-2,4.3000452E-2],"categories":[],"categories_nodes":[],"categories_segments":[],"categories_sizes":[],"default_left":[0,0,0,0,0,0,0,0,0,0,0,0,0,0,0,0,0,0,0,0,0,0,0,0,0,0,0,0,0,0,0,0,0,0,0,0,0,0,0,0,0,0,0,0,0,0,0,0,0,0,0,0,0,0,0,0,0,0,0,0,0,0,0,0,0,0,0,0,0,0,0,0,0,0,0,0,0,0,0,0,0],"id":20,